437 256
plane -0.0941642 -0.14932 0.167722 0.0627278 0.185132 0.104295 0.105292 -0.0548922 -0.206305 0.0643862 -0.0579317 0.109486 -0.368634 0.0515798 0.181768 0.273486 -0.142666 0.180894 -0.204558 -0.183826 0.170363 -0.112396 -0.138445 -0.235537 -0.141491 -0.391238 -0.272224 0.0993399 0.164643 0.0682354 -0.307567 -0.0605938 0.0679363 0.334886 0.21224 -0.0334618 -0.14269 0.0781438 -0.223491 0.0669506 0.176118 -0.0462739 0.0643134 -0.0508446 0.0796967 -0.0385458 0.04208 -0.484506 0.113163 -0.147346 0.208283 -0.166013 -0.0587579 -0.280532 0.276296 0.069975 0.122085 0.0115721 0.244757 -0.427069 0.0492007 -0.33269 0.129604 0.399799 -0.0430114 0.184517 -0.133573 0.154855 -0.0983837 -0.103774 -0.0493453 -0.126784 0.156747 0.136255 -0.0743528 -0.0347159 -0.404096 -0.0257683 -0.188845 0.132958 -0.27568 -0.0272661 0.0277145 -0.174421 0.0534038 -0.199189 -0.102919 0.140512 -0.018654 0.101725 0.148735 -0.179924 -0.180238 -0.0027599 -0.269105 -0.280356 0.142958 0.380074 -0.356059 -0.36455 0.0029028 -0.310896 -0.019879 0.178677 0.0156158 0.0341334 -0.0378824 -0.202899 -0.26847 -0.288804 -0.256862 0.0397043 -0.129388 -0.115328 0.195446 -0.00682817 -0.368495 0.295286 -0.0841907 -0.113758 0.22077 0.0168299 -0.0368272 0.0160589 -0.18089 -0.332546 0.0844857 0.185809 -0.098305 0.00889646 0.00982072 0.210657 -0.242013 -0.0117027 -0.150163 0.131048 -0.150114 -0.182231 0.060877 0.121913 0.169299 0.0574543 0.134457 0.199859 0.203492 -0.0695075 -0.215987 -0.000302587 -0.0163624 -0.0376544 0.441501 -0.102723 0.135578 0.205168 -0.158978 0.223558 0.118287 0.29936 -0.0137442 0.22746 0.0257235 0.170331 -0.144758 0.0925362 0.261058 0.0598139 -0.118741 -0.0513482 0.0208751 0.173249 0.207208 0.186494 0.18005 -0.399546 -0.348306 -0.278287 -0.140869 0.0653057 -0.275422 -0.0832156 -0.164098 0.0486247 -0.115967 0.159458 0.0884249 -0.108409 -0.0538372 -0.0548702 -0.140625 0.0124878 0.278119 0.209259 0.0103437 0.0489716 -0.0628981 0.16462 0.300443 0.265513 0.353422 -0.0903696 -0.0160616 0.113355 0.0366959 0.349329 -0.107284 -0.268124 -0.134883 -0.132001 -0.166711 -0.182755 -0.335528 -0.240228 -0.071448 -0.0788761 0.391659 -0.0471853 0.0932174 0.247639 -0.263136 -0.426036 -0.0983583 -0.00914178 -0.177711 -0.0030419 0.197286 -0.321289 -0.422648 -0.415824 -0.0962761 0.189301 0.0342307 -0.15193 -0.00370734 0.0778743 0.169029 -0.288429 -0.157144 -0.406493 0.1408 -0.491766 0.0686163 -0.0535508 -0.497447 -0.494783 0.0655886 0.217724 -0.00471656 -0.152993 0.109911 0.0950036 -0.0653392 -0.225254 0.0581147 -0.258546 0.118489 -0.0352563 
stupid -0.0153871 0.0182955 -0.251263 -0.00505702 0.352232 0.15693 0.0640134 0.294228 0.0946298 0.1727 0.0165158 0.0495878 0.398125 0.079056 -0.100307 -0.341126 -0.104317 -0.218321 0.088054 0.0562116 -0.283944 -0.0914228 -0.019247 0.102501 0.00930746 0.0120927 0.0807544 -0.15079 0.207802 -0.185035 0.0467786 -0.0300844 -0.025671 -0.00563886 -0.0674476 0.0895318 -0.0540911 0.0391292 -0.161154 -0.377645 0.198691 0.129788 -0.115696 -0.0117393 0.0876631 0.101292 0.116266 -0.0767051 -0.0443029 -0.0744545 -0.183715 -0.18876 0.202242 -0.0993398 0.0483275 -0.118565 -0.203966 0.196327 0.0659761 -0.174196 0.0770973 -0.425047 -0.00721525 0.334998 0.0551049 0.222 -0.123376 -0.0680112 -0.349374 0.0976579 0.203808 0.0507902 0.0751141 0.285236 -0.245941 -0.0244928 0.068135 -0.0127281 -0.144707 -0.106731 -0.0563619 -0.316705 0.195722 -0.257953 -0.0753875 -0.0729342 -0.0613567 0.0327944 0.0191535 -0.0612034 0.136046 -0.211433 -0.120063 -0.0400298 0.156838 0.0177223 -0.167224 0.381418 -0.0692692 -0.139155 0.0232689 -0.155478 0.23756 0.172959 -0.22546 0.0945404 -0.0810916 0.0606797 -0.0182044 0.245935 0.11702 0.0832624 -0.102916 0.168614 -0.152501 0.238675 0.0824128 0.124617 0.141333 -0.00900653 0.0789066 0.0249394 0.105184 0.112884 -0.299331 0.212291 -0.259863 0.00791826 0.0600258 -0.0729783 -0.100943 -0.136264 -0.0984799 0.109422 0.145424 0.0936945 0.154134 -0.105988 -0.0295959 -0.0596257 0.116085 0.117206 0.145022 0.151385 -0.0328048 -0.123194 0.0399464 0.187984 -0.0683206 0.104799 0.288711 -0.0715594 0.207378 -0.18126 -0.135214 -0.21258 -0.0301437 0.0588669 -0.124129 0.0578943 -0.259688 0.109965 -0.0374731 -0.0209553 0.0579692 -0.201457 0.00885699 -0.206228 -0.0662616 -0.0277016 0.138352 0.126557 0.00684782 -0.110126 0.0214421 0.0559311 -0.124914 -0.181098 -0.333067 0.0911178 0.0593189 0.042876 0.204379 0.154885 -0.0368723 -0.068272 0.115487 -0.139764 -0.108843 -0.18677 -0.0138246 0.0670211 -0.108812 0.0507837 -0.116424 -0.190768 0.160453 0.0382844 0.124181 0.248352 -0.155201 0.0408354 0.00969056 0.0764276 -0.214345 0.189098 0.221575 0.140489 0.107877 -0.254547 -0.145583 -0.182399 0.124541 0.122606 -0.01497 0.247789 -0.00212398 0.0363696 0.0586782 0.0931502 0.216662 0.0148182 -0.243063 0.0301523 0.179633 -0.322393 -0.106309 -0.206877 0.0839126 0.116581 -0.0522321 -0.1043 -0.0253465 0.0437509 0.185609 -0.0853651 -0.0193063 0.0326265 0.0242854 -0.102921 0.0185285 0.0173279 0.135889 -0.0148362 -0.0399539 0.27413 0.129871 -0.028888 -0.163733 -0.168256 0.0511664 0.20182 0.239737 -0.0692607 0.287311 -0.171643 
egg 0.0211261 -0.160592 0.51037 -0.472149 -0.209837 -0.351409 -0.241409 -0.0645225 0.132296 0.465774 -0.0203225 0.0602403 0.142539 0.0315311 -0.09473 0.098533 -0.276068 0.0322513 -0.135135 -0.0372515 0.17942 0.0247132 0.163756 -0.307296 -0.0149698 0.140743 0.356938 0.220062 0.0144546 0.301386 0.180733 -0.0258432 0.283966 0.0410593 -0.00142013 0.0426965 -0.0788897 0.290303 -0.0607374 0.43139 -0.0120831 0.110383 -0.113688 -0.201075 0.309276 0.159591 0.171022 0.00227283 0.0417723 -0.0451782 -0.36575 -0.39746 -0.240753 -0.1077 -0.0518999 -0.00202809 -0.0635698 -0.0459468 -0.209466 -0.00435152 0.247793 -0.29179 0.110988 -0.0123567 0.421388 0.0147335 0.0814356 0.121779 -0.162763 -0.219882 -0.221182 0.167222 0.332216 0.0088548 0.0156611 -0.229129 -0.185848 -0.11133 -0.124839 0.0569451 0.0270166 0.129545 0.517737 -0.209748 0.111119 -0.0242548 -0.0355618 0.191992 0.340745 -0.291384 0.354787 -0.187078 0.0413375 -0.183384 0.495387 0.321791 -0.0551056 -0.0557033 0.0330192 0.584696 -0.142011 0.10093 -0.048645 0.162288 -0.0668318 0.0866344 0.269741 -0.0743512 -0.147362 0.246132 0.0236149 0.194549 -0.0960316 0.0334082 0.163135 -0.120102 -0.0897857 0.283048 -0.00795306 0.0466317 -0.166715 0.0801942 0.00889277 0.0296064 -0.0821005 0.0575779 -0.179029 -0.160615 0.0215166 0.156746 0.0758483 -0.0732795 0.145628 0.203081 -0.303274 -0.00584351 0.201553 -0.184003 0.190553 0.100287 0.208323 -0.0619862 0.151959 0.0446039 -0.0875014 -0.106073 -0.127725 0.180396 0.184097 -0.639928 0.125597 -0.0041203 -0.0869084 0.133949 -0.36193 -0.336353 -0.0106482 -0.13744 0.121695 0.242656 0.315633 0.0760292 0.264764 -0.203089 0.297533 -0.152988 -0.00569377 -0.0328381 -0.17997 0.393423 0.159107 -0.000225696 -0.280096 0.0667738 -0.0437386 0.0944754 -0.0745024 -0.187915 -0.347166 -0.0563713 0.173403 0.0686394 0.0349836 -0.236821 0.25414 -0.299601 -0.231556 0.036943 -0.065487 0.145729 0.0520343 -0.324185 -0.268186 -0.165419 0.392839 -0.138469 -0.107331 -0.119314 0.0219854 0.380453 -0.058416 -0.0662133 -0.041378 -0.207548 0.2721 -0.105912 -0.108771 0.216534 -0.112415 -0.00180763 -0.428735 0.123296 -0.156773 0.046017 -0.192231 0.0545118 -0.340927 -0.199738 -0.00567781 -0.047529 -0.168115 -0.194328 0.191988 0.087213 -0.0225783 -0.352387 -0.171353 -0.0788848 0.176995 0.0134443 -0.0796087 0.147493 -0.0846247 0.0732864 0.0472889 -0.19713 -0.0247044 0.232881 0.00925321 0.0457299 -0.0849016 -0.343759 0.553078 0.166249 0.143914 -0.188289 -0.0528783 -0.320207 -0.201387 -0.014275 0.403192 -0.0477291 0.0900268 0.144878 -0.245148 -0.0867209 
year 0.00889953 0.0736879 0.0428167 0.0210658 0.0369202 0.0111063 0.0330809 0.0918325 -0.107265 0.0354302 -0.112251 -0.0386136 0.213034 -0.116862 -0.143041 -0.0257466 0.0897208 0.0879086 0.0409199 0.135998 -0.0186084 0.0020913 -0.000512317 0.073869 0.0311958 0.158226 -0.0736768 -0.0147631 -0.00486713 -0.0648752 -0.0127315 0.144549 0.11294 -0.074153 0.0268036 -0.127254 -0.0909907 0.05795 -0.00418282 -0.0629564 -0.0957138 -0.0321748 -0.0542711 0.0251691 -0.0387601 0.225506 0.195202 -0.00824193 -0.102208 -0.0416003 0.100779 -0.151289 -0.059109 0.00481383 -0.0287031 0.111801 0.16205 -0.138388 0.0155172 -0.0284616 0.0569042 0.159534 -0.00393519 0.106241 -0.0558068 0.0145089 0.0470682 -0.0974194 -0.00238028 -0.182355 -0.0751198 -0.0117105 0.0543302 0.0177496 -0.0829939 0.149417 0.00276659 0.0522971 0.0263426 0.13547 -0.057426 0.0584966 0.00816318 0.115164 -0.110145 -0.017901 0.0499905 -0.0662094 0.0270886 0.0892877 0.0756637 0.0295266 -0.0645464 -0.0977016 0.0214291 0.0673166 0.00325139 -0.00333488 0.0478056 0.0370623 -0.0171996 0.0516976 -0.0104651 -0.0135326 -0.0987084 -0.0160507 -0.116665 0.110421 -0.108788 -0.23308 -0.0432957 0.0657645 0.0412496 -0.022696 -0.140864 0.0442858 -0.0154659 -0.00279116 0.000884468 -0.0257973 -0.00267504 -0.0859335 0.122783 0.120263 -0.131657 0.0417471 0.0733604 -0.0977168 -0.0690516 -0.079168 -0.0297736 0.0592424 -0.019931 0.104684 -0.0173614 -0.120448 0.0949531 -0.055146 -0.100615 0.0555981 0.000842235 -0.0199155 0.0920709 -0.094348 -0.0283476 -0.160494 0.0413305 -0.0249041 0.109275 -0.100605 0.0639714 0.117321 0.152836 -0.0716695 0.0951418 -0.163934 -0.185906 -0.106795 0.0670127 0.0773041 -0.0228104 -0.115952 -0.0258503 0.15394 -0.00823084 0.0311898 0.0356865 -0.11439 0.101746 0.0550654 -0.022631 -0.0317596 -0.2277 0.103726 0.0593944 0.0186377 0.126794 0.0448115 0.0499 0.0844916 -0.0485313 -0.348049 -0.00159179 0.0290434 -0.0910804 -0.117681 -0.0993916 -0.0457327 0.113151 0.037224 -0.162111 0.0107404 0.174058 0.0494176 -0.0567597 -0.264578 -0.184037 -0.0739854 -0.0125527 -0.0516833 0.0645698 -0.0851943 0.043779 0.0339299 -0.0620202 -0.133888 -0.0886365 -0.0709638 -0.0575343 -0.111431 -0.0293151 -0.0488479 0.0326013 0.0523472 0.198354 0.0325219 -0.0855762 0.0700306 0.0422974 0.0795756 -0.0939105 -0.0145661 0.135214 0.104568 0.121798 -0.175834 -0.0674751 -0.0302029 0.00477734 0.0276038 -0.223159 0.0812932 -0.147625 0.0551899 -0.0726226 -0.0161461 0.135058 -0.0860841 0.107589 0.105838 0.179986 0.0606816 0.0573536 -0.141876 0.110577 -0.0409207 -0.040203 -0.0386173 0.0188461 0.0562116 0.0696458 -0.167911 0.0595306 -0.14133 -0.0445969 0.157832 
psychiatry -0.141908 -0.158696 0.00674827 0.00618105 -0.0879093 -0.0292754 -0.263683 0.103501 -0.0219047 0.163243 -0.13313 0.248122 -0.0279271 -0.253154 0.315618 -0.265037 0.181495 0.253221 -0.217456 0.165375 -0.0632675 -0.562739 -0.212278 0.247242 0.255076 -0.349338 -0.144069 -0.461235 0.139281 -0.183034 -0.370285 0.116747 0.150482 0.0772863 0.453582 -0.162869 -0.160777 0.0459416 -0.391714 0.327201 -0.476997 -0.123211 -0.0718828 0.299522 -0.0469049 0.184944 0.631674 0.205696 0.233076 0.448298 -0.213019 0.762582 -0.173787 0.0463487 0.707093 0.38639 -0.228149 -0.212094 -0.0969547 0.145106 0.0262139 -0.532156 -0.323794 -0.125084 0.347812 0.173587 -0.0195077 0.0837939 0.00908963 0.336112 -0.137658 -0.859325 -0.116356 0.53426 0.793517 0.367465 -0.178916 -0.887149 -0.197353 -0.0400232 -0.120567 -0.252736 -0.290566 -0.136678 0.179087 0.0274081 -0.121288 -0.373871 0.170146 -0.097294 0.371073 -0.305634 -0.110009 0.166297 0.330072 0.00127946 -0.255181 -0.135162 0.27217 0.645928 -0.296598 -0.253507 -0.025525 0.255309 -0.0956552 -0.0802839 -0.0103056 -0.176068 0.183625 -0.00282405 0.12219 -0.0970437 0.103938 -0.162948 -0.0122826 -0.164247 0.0390226 -0.319563 -0.063269 -0.115899 0.227391 -0.370028 -0.0703017 0.111544 0.373363 -0.142105 -0.353534 -0.0914014 0.208179 -0.137081 -0.0193608 0.0375113 -0.549178 -0.497408 0.268919 0.00711202 0.348198 -0.0512524 0.12389 -0.00394976 -0.129218 0.0583806 0.308606 0.40394 -0.141139 -0.127793 0.0293723 -0.360791 -0.423034 0.264904 -0.11724 -0.327226 -0.148931 -0.0764863 0.161759 -0.157977 0.108292 0.0100802 -0.431971 -0.180307 -0.194482 0.243379 -0.0380188 -0.044537 0.0193628 0.0704728 -0.304557 0.0481068 0.581348 -0.250125 -0.116654 0.0742348 0.096418 0.280979 -0.136245 -0.282525 -0.348641 0.168988 0.060976 -0.660769 0.0472994 0.13647 0.0524721 0.0723161 0.358365 0.26788 0.23783 0.257154 0.417535 -0.175402 0.0499574 0.0511677 0.127186 0.0495389 0.185419 0.206477 -0.018644 -0.0525185 0.312961 -0.221392 0.109179 0.0548792 -0.0748337 -0.0359928 0.537321 0.234706 0.239226 0.274358 -0.170696 -0.57403 0.225316 -0.160771 -0.074353 0.108088 -0.245929 -0.103717 -0.0123728 -0.212906 -0.197483 -0.118757 -0.481078 0.160303 0.200845 0.142896 -0.306609 -0.372129 0.276426 -0.0224931 -0.131588 -0.0425899 0.0100731 -0.407902 0.36094 -0.0599463 -0.0272592 -0.282193 0.111049 -0.229787 0.607895 -0.0968878 0.00681868 -0.192944 0.124454 -0.00459422 -0.241835 0.480499 0.218194 -0.0242051 0.167105 0.144073 0.430031 0.0692044 0.345624 -0.198531 -0.146037 -0.0919133 
asylum -0.138428 -0.0365856 0.274819 0.192372 -0.406727 0.0308026 -0.201548 0.206626 -0.448312 -0.046259 0.106208 0.329704 0.184477 -0.112714 -0.22351 0.0586626 -0.48455 -0.177608 0.146308 -0.0169076 -0.162354 0.392698 -0.29207 -0.171681 0.0770771 -0.004258 0.161987 0.18626 0.0667162 -0.141013 -0.158604 0.11815 0.250141 0.204264 0.0422044 0.313183 -0.130119 -0.0603605 -0.0257748 -0.145082 -0.115608 0.0589487 -0.199162 0.128037 0.0994956 -0.378259 0.313488 -0.0931783 -0.0740358 0.489299 -0.195112 -0.382189 0.31164 -0.000430572 -0.0942644 -0.205878 0.313591 0.124923 0.0869364 -0.10948 0.372371 0.416563 -0.0331121 0.176087 0.118034 -0.370097 -0.289619 -0.0577598 -0.0153088 -0.519819 0.214888 -0.11812 0.157612 0.138758 0.251332 0.379676 -0.239431 0.191062 -0.20532 0.108611 0.0272099 0.0980348 -0.153495 -0.401585 -0.406593 -0.215232 0.127424 -0.0147053 -0.18342 -0.032509 0.173006 0.00510483 0.478031 0.0282008 -0.0147236 0.394193 -0.387311 -0.2562 0.044541 -0.0939179 -0.15735 0.346252 -0.0612956 0.071581 0.0516248 -0.0518761 -0.00390853 0.076441 0.0998298 -0.196527 -0.28898 0.130551 -0.0324905 0.127882 -0.0505546 -0.0666598 -0.223127 0.143774 -0.270178 0.209571 -0.060646 -0.0330705 0.0458836 0.205741 -0.157108 -0.24636 -0.0689693 0.014867 0.0182612 -0.0419544 0.155785 0.0926046 -0.231712 0.0646448 0.189229 0.413221 0.229718 0.00363047 0.182804 0.411313 0.0255118 0.236478 -0.267511 0.332909 0.0581585 0.0622963 -0.141867 -0.714453 0.435195 0.289709 0.139636 0.098974 0.104773 0.177499 -0.0292126 -0.127524 -0.26831 -0.00808556 0.253988 0.0663582 -0.217798 -0.00206143 0.347181 0.401989 0.26957 0.337088 0.0725921 -0.0811753 -0.0944394 -0.125514 -0.273266 0.134828 0.25779 -0.0810836 -0.100457 0.0270987 -0.0041866 -0.11498 0.0214496 -0.12516 -0.0749824 0.183258 -0.0747168 0.0188223 0.109441 -0.283339 -0.0168422 0.187848 0.0508057 -0.0996427 -0.0277497 -0.0664823 0.250416 -0.0690554 -0.0816453 -0.235933 -0.226628 0.211049 0.180327 0.103349 -0.0483621 0.0660796 -0.252995 -0.0457229 -0.25612 0.120623 -0.185969 0.111436 -0.0936857 -0.254202 0.0222306 0.274191 -0.132215 0.388783 0.233175 0.312178 0.00769837 0.0389377 0.187419 -0.16143 -0.152105 -0.232094 -0.0205182 -0.684601 -0.0283575 -0.218126 -0.13423 -0.144079 -0.322398 -0.286965 0.355213 -0.636003 -0.235275 0.0634855 0.25225 0.0525292 0.192304 -0.100051 -0.0120932 -0.0907128 -0.0706424 -0.182438 -0.31133 0.251809 -0.175577 0.218701 -0.0761163 -0.0879369 0.29739 -0.0815787 -0.0652007 0.556584 0.018368 -0.15009 0.272683 -0.0971598 
manslaughter 0.19422 -0.0147493 0.132715 -0.0500591 0.0683578 -0.102203 0.0530533 -0.424049 -0.236064 -0.312658 -0.0367761 -0.169661 0.215393 -0.224643 0.436654 0.178887 -0.0119704 0.0348181 -0.187451 0.0645632 -0.0541879 -0.185689 -0.134944 0.340698 -0.107039 0.030086 0.0689927 -0.0184908 0.124409 -0.487404 -0.202061 -0.0868812 0.574672 0.100587 0.144219 -0.393474 0.420887 0.581211 -0.1331 0.370196 -0.156531 0.0129275 -0.41719 0.012548 -0.126042 -0.116005 0.0382556 0.241738 0.02493 -0.0236869 -0.45489 0.313296 0.168246 0.130128 -0.183181 0.692859 0.151136 0.291302 0.280486 -0.280929 0.0982279 -0.0105397 -0.131387 0.519365 0.795736 -0.531561 0.115145 0.594462 -0.108501 -0.040233 0.256183 -0.361105 -0.456937 0.0189218 -0.335753 0.157167 -0.235133 -0.0311385 0.187429 0.270058 -0.132265 0.0217674 0.117703 -0.208999 0.186599 -0.626005 -0.388436 -0.0591644 -0.443695 -0.179913 -0.0826496 -0.276287 -0.134322 0.507256 0.137259 0.0616041 0.081999 -0.586418 -0.410146 0.0340381 0.115441 -0.0395523 -0.407782 -0.347481 -0.364084 0.447362 -0.559532 -0.129815 -0.0088448 0.00465802 0.0198071 -0.315729 0.14908 -0.0386227 -0.0301243 -0.0312149 -0.227656 -0.556119 0.382016 -0.409204 0.0144485 -0.118188 0.0324273 0.0287586 0.274308 0.201477 -0.0408989 0.120102 -0.121442 -0.0672885 -0.485692 -0.14225 -1.02813 0.423477 -0.0610629 0.470667 -0.15159 0.0519299 0.348779 0.527821 0.380852 0.0467464 0.0137665 -0.116193 0.226992 0.264242 0.602964 -0.34706 -0.0112513 0.0777122 0.292403 0.340594 -0.21148 -0.0481337 -0.476916 0.0331559 -0.106405 -0.0383821 0.0375354 -0.339711 -0.320779 0.158564 0.373985 0.400872 -0.0693533 0.542432 -0.0774462 -0.156521 -0.052655 -0.123525 -0.256002 -0.0671291 0.0496873 0.120928 0.0877602 0.0273915 0.290886 0.487583 -0.0578554 0.0528303 0.0686597 0.241614 0.377889 0.188237 -0.195056 -0.0709324 0.174433 -0.535593 -0.163911 -0.130029 0.235815 -0.0221703 -0.0873761 0.197061 -0.261061 -0.112668 0.15345 0.0840159 -0.152727 0.660514 0.311746 -0.0614354 -0.231687 0.255774 -0.185472 0.21128 -0.106633 0.289564 -0.186228 0.0416462 -0.461285 0.0937045 -0.336805 0.0758318 -0.128781 0.00599547 -0.248294 0.138343 -0.238899 -0.0499006 0.12301 0.211661 -0.471838 -0.0329155 -0.21099 -0.233812 -0.261025 -0.504606 0.0274703 -0.0365391 0.0913486 0.20241 -0.272 -0.522157 -0.199504 -0.0767428 0.102845 0.172345 -0.0920684 -0.0202413 0.00660943 0.423028 0.224326 -0.0688686 -0.512564 -0.134255 -0.0611884 -0.505319 -0.11916 0.27443 -0.109633 0.144812 0.0556649 -0.319744 -0.192742 0.158621 
music -0.130792 -0.0163796 -0.0832867 0.117248 0.00479194 -0.0354077 0.270831 -0.0788431 -0.222572 0.145662 -0.0176631 0.0707 -0.243971 0.165988 -0.236951 0.00752127 0.175462 0.078869 0.0876923 0.0227962 -0.0186916 0.0137283 -0.116273 -0.0703808 0.404881 -0.0606374 0.103064 -0.0145769 0.136086 0.158153 -0.299158 0.39597 -0.151104 0.127507 -0.0797035 -0.205688 -0.16787 0.154313 -0.0112359 -0.00612919 -0.173342 0.13946 0.209474 -0.0168745 -0.186426 0.0294914 0.125696 0.152587 0.0323637 0.014443 -0.0733172 0.0401051 -0.0801978 0.039285 0.0231389 0.114006 -0.143869 0.0125295 -0.282296 -0.378535 0.359919 -0.205748 -0.159459 -0.0220683 0.072721 -0.313317 0.221199 -0.319673 0.0347042 0.0316352 -0.110281 0.0284829 -0.108421 0.253875 -0.0168709 -0.223212 0.189943 -0.0167641 -0.170475 -0.0790869 0.117593 0.024867 0.163622 -0.0373659 0.0464261 -0.56398 0.238291 -0.168573 0.288364 0.130574 -0.0103793 0.103896 -0.0511388 0.0141722 0.286295 0.202477 0.223577 -0.0407539 0.0581869 0.241056 0.139968 -0.160005 -0.0241224 -0.120748 -0.0470878 -0.0840196 0.354759 0.284651 0.0498589 -0.0490167 0.134999 -0.0521414 0.0588091 -0.0538397 0.0302305 0.15392 -0.0131709 -0.116233 0.0376542 -0.0410205 -0.0888395 -0.163843 -0.19399 -0.016723 -0.155354 -0.0936995 0.15363 0.00550229 0.14295 0.108824 -0.317443 -0.155255 0.101232 -0.0567417 -0.529424 0.437731 0.057828 -0.0623464 -0.186325 0.0557475 -0.235722 0.101728 0.038579 0.0331483 0.119736 -0.131594 0.196766 -0.107997 -0.0199857 -0.0329328 0.243695 -0.115984 -0.168718 0.115699 -0.068175 0.101844 0.140761 -0.0415728 -0.0253503 0.0860137 -0.1691 -0.0249964 0.105164 0.351209 -0.171328 0.228875 -0.0326834 -0.108135 0.0697734 -0.121774 -0.203491 -0.456351 -0.085175 0.201646 -0.120524 -0.0536422 -0.0667412 -0.0585459 -0.0207541 -0.165997 0.136551 0.402327 -0.210131 0.151979 -0.1509 -0.0736265 -0.0792727 0.0576604 0.254874 0.137714 -0.0580787 0.113145 -0.0232936 0.0556437 -0.114978 -0.110092 0.0046859 0.140777 -0.0437225 0.0800579 -0.14965 -0.139061 -0.227551 0.0250112 -0.267057 0.129963 0.114258 0.181774 -0.335556 -0.198754 0.272198 -0.0737498 0.101435 -0.268491 0.100539 -0.0668399 0.0340007 0.0969712 0.0758075 -0.0758114 0.0314115 -0.116123 0.228481 -0.238549 0.0418406 -0.0856151 -0.150522 -0.090822 0.0295666 -0.00373223 -0.00415878 0.0616206 0.0244901 0.123701 -0.0452994 -0.370868 0.0211114 -0.0412471 -0.0910412 -0.283155 0.1035 -0.0845351 0.0624925 0.133321 0.0115579 -0.0276756 -0.0549028 0.202166 0.00804865 -0.0486261 -0.0646412 0.0622613 0.0681736 0.23599 0.038374 0.165763 
record -0.00113399 0.119072 -0.295998 0.096663 0.244504 -0.0477562 -0.0329081 -0.169384 -0.106448 0.112735 0.0542033 -0.027482 0.102897 -0.0493537 -0.120668 -0.0511742 0.11123 0.150419 -0.0428112 0.080386 0.0593549 -0.129345 -0.0492179 -0.13428 0.098142 -0.131096 0.072134 -0.057395 0.0698719 0.0781378 -0.0241051 0.173295 0.163954 0.0391404 0.108065 0.00836366 -0.0892542 -0.134033 0.0231179 0.0965055 0.182425 -0.242109 -0.133988 -0.130854 0.218607 0.171236 0.0575277 0.0397374 0.0550318 0.0599392 0.112201 0.141403 -0.12821 0.0795937 -0.00446286 0.0494839 0.206125 -0.062038 0.0723971 -0.0762841 0.215212 0.164346 0.0317367 -0.00424088 0.0294706 -0.173179 0.19514 0.115437 0.0961261 -0.127989 0.0585332 -0.0510178 0.0853314 0.0162324 -0.219993 0.200487 0.128846 0.123297 0.0455008 -0.0168585 0.0682418 -0.0570516 0.0542434 0.057784 -0.0770943 -0.228669 0.318448 0.108399 0.0837359 0.261894 -0.090682 -0.0479212 -0.0718303 -0.053371 0.0169688 0.17754 -0.0375432 0.149908 -0.175171 0.0842875 0.215529 -0.0682326 -0.0889844 0.260444 0.0460123 -0.0197704 0.275341 0.115604 -0.0321554 -0.20291 -0.0996863 0.149958 0.0819609 -0.0546989 0.0461054 0.340105 0.123102 0.10573 -0.0926239 -0.165962 0.0476921 -0.182652 0.062758 0.100591 -0.217838 0.0324224 -0.148975 0.0705994 0.105833 0.0709788 -0.0521369 0.0680734 -0.0910808 0.296901 -0.0454182 0.0339432 -0.0363361 -0.0701457 -0.157217 0.192021 0.287881 0.109224 -0.0255674 -0.076527 -0.145704 -0.296997 -0.0263184 0.0714249 -0.0492604 -0.176806 -0.0235158 -0.0533218 -0.00949842 0.0504427 0.212025 0.0188931 -0.0743341 -0.01292 0.136517 0.185456 -0.262431 -0.0129854 0.0315985 0.0620456 0.0575489 0.16606 0.00921558 0.0808037 0.0353486 -0.0745425 0.101216 -0.0062632 -0.168035 0.204026 0.117034 0.0730935 -0.105171 -0.162339 -0.00998248 -0.112772 -0.0663299 -0.0842136 0.115292 -0.0561291 -0.164146 0.0304025 0.0471984 -0.00400478 0.0644864 0.0991829 -0.0749385 0.227612 0.255691 0.0107106 -0.092143 -0.028711 -0.252469 -0.0773373 0.112105 -0.172804 0.161783 0.0107523 0.0587297 0.0550854 -0.205266 -0.116772 -0.112809 -0.00315252 -0.149612 -0.164753 0.0312622 0.058104 -0.0600916 -0.136164 0.138964 0.108466 -0.095622 0.116172 -0.015572 0.132386 -0.40719 -0.272313 0.151164 0.051577 0.0838048 -0.130854 0.0065628 -0.0398522 -0.0124625 -0.147399 -0.00462242 -0.00478424 -0.146771 -0.000899712 -0.0143468 -0.247271 -0.0131281 0.167784 -0.0647527 0.0834653 -0.0755657 0.0185928 -0.0966705 0.0371519 0.00774813 -0.0240236 -0.113887 -0.182195 -0.166152 -0.40539 0.228074 -0.14594 0.132199 -0.0793339 -0.133809 -0.0776176 
energy 0.14484 -0.0961559 0.0243901 0.144997 -0.0270503 0.148545 -0.0695723 0.101145 -0.108338 0.256439 0.0904389 -0.107731 -0.154298 0.115448 -0.106005 -0.00792618 -0.143713 -0.210884 -0.102385 0.336649 0.0416594 -0.0920589 -0.0237129 -0.0444993 0.116917 -0.0852863 0.0500509 -0.259268 -0.170339 0.184143 -0.0444403 0.103795 -0.0473291 -0.0951094 0.26464 0.0654989 0.0957128 0.0323422 -0.0934087 -0.073694 0.00628179 -0.0362733 -0.0032628 -0.261466 -0.171332 0.0557323 0.00480374 -0.0155709 -0.0893935 -0.0414665 -0.304385 -0.174731 0.292887 0.0685166 0.0296722 0.253783 0.185407 0.104177 -0.0560841 0.146682 0.16782 0.258155 0.0977391 -0.0854344 0.0314658 0.0647435 0.269048 0.0167065 0.0748659 -0.23731 -0.166757 -0.0385243 0.161647 0.189467 0.226403 0.410358 0.41615 -0.0174196 0.0992243 0.121351 -0.0715249 -0.0795844 -0.180061 -0.123338 -0.0879881 0.0940216 -0.113952 -0.239746 0.0778935 -0.00780686 0.109027 0.111994 -0.335293 0.00371299 -0.034605 -0.243011 0.118097 0.135838 0.229829 -0.0465607 0.107053 -0.202187 -0.074201 -0.148917 -0.081799 0.232974 0.000935659 -0.0182068 0.114512 0.126601 -0.162101 -0.210559 -0.352778 0.0542033 -0.0286597 0.12937 -0.164352 0.175048 -0.190442 -0.087539 0.228322 0.00647604 0.0392602 0.0361215 -0.370799 0.0211415 -0.0540728 -0.0547095 0.104388 0.410546 -0.0114448 -0.0316428 0.229989 0.108372 -0.0639487 0.0148667 -0.0591062 0.143344 -0.18503 0.177679 0.167167 0.246312 0.104192 -0.0211951 -0.0130782 0.00583508 0.0785806 0.137098 0.099492 -0.232314 0.062318 -0.000793196 -0.0236896 0.0354351 0.0274376 -0.0569795 0.0779168 -0.0448987 0.0925436 0.185398 0.13159 -0.0403489 -0.404399 0.284211 -0.0391686 -0.228155 0.0701994 -0.00424449 0.189785 -0.146347 0.0371919 -0.019523 -0.0552802 0.300344 -0.22468 0.0482047 0.201153 0.268546 0.0614807 -0.181806 -0.304924 0.229423 0.0239178 -0.13196 0.417643 0.0495496 0.04588 -0.216616 0.151567 0.0690328 0.167639 0.117025 -0.175143 -0.199751 -0.467662 -0.192469 -0.0501016 -0.0193993 -0.102067 -0.0205737 0.132367 -0.0881641 0.0705971 0.0619356 0.176526 0.169954 -0.114616 -0.137997 0.325233 -0.156563 -0.166634 0.0360679 0.119476 0.0825161 0.0223095 -0.055643 -0.408356 0.154325 -0.0269644 -0.236652 -0.0470312 0.497769 0.11558 -0.0813431 0.0196298 0.143524 0.0326208 0.0640265 -0.0543864 0.0249541 -0.0415254 -0.247487 0.126851 -0.0653288 0.327803 -0.148667 -0.0495629 0.0243141 0.130699 0.220593 0.0101646 0.300029 -0.0475226 -0.140589 0.0318851 -0.132185 -0.0700428 -0.231336 -0.254732 -0.115195 -0.0576314 0.0614399 -0.100411 0.210202 -0.0194904 -0.00213807 
announcement 0.126505 -0.140465 0.246626 -0.181699 0.0603247 -0.0635661 -0.0663562 0.0294642 -0.147726 0.0793452 -0.142725 -0.109484 -0.051868 -0.0558035 0.0590612 0.123094 -0.11476 -0.113075 -0.00221892 0.0540395 -0.163961 0.0692741 -0.222721 0.104011 0.188023 0.105541 -0.124864 -0.119076 0.143223 0.165411 -0.137931 0.158832 0.0403358 0.0651469 -0.0361723 0.0168599 0.109232 -0.0150351 -0.08603 -0.0558611 -0.296988 0.0397689 0.0873025 0.0130111 -0.0774574 -0.0576434 0.15516 0.10648 -0.130822 -0.14921 0.0335513 0.0154166 -0.201088 -0.0706128 -0.00388551 -0.000345021 0.0649081 -0.122417 0.160212 -0.0193917 0.0843199 -0.153679 -0.00112157 0.0559224 -0.176432 -0.149274 0.0570229 0.169046 0.0142439 0.0386034 -0.0408629 0.0751925 0.114727 -0.129472 0.195778 0.247749 0.167609 -0.0287304 0.138235 0.0588595 -0.299699 -0.0343456 0.0289133 -0.044258 -0.0649997 -0.020079 0.0202873 0.132378 0.14247 0.085626 0.0696168 0.0680957 0.0830183 -0.175109 0.0435409 -0.0436669 0.100001 0.123039 -0.0676844 -0.254675 0.155042 0.0325049 0.0395546 -0.290953 0.0782729 0.0444622 -0.151676 -0.197948 0.104964 -0.160749 0.0468349 0.171276 0.072245 0.0786883 -0.0468941 -0.162609 -0.041221 0.00171234 -0.0299951 0.060986 0.072769 -0.108081 -0.114696 0.0743606 -0.240034 -0.113791 -0.174186 0.0598767 -0.129609 0.00841614 0.0923412 0.183857 0.0489906 -0.140232 -0.150664 -0.0682527 0.211511 -0.0140062 -0.15515 0.185643 0.024658 0.0711883 0.0964949 -0.104037 0.0250508 0.0427168 0.137972 0.040263 0.0299343 -0.034777 0.0412013 -0.223723 0.0190796 -0.0167317 0.00406886 0.0439131 0.147619 0.0603013 -0.127496 0.105214 -0.0717837 0.026448 -0.104668 0.0637881 -0.0884698 -0.0231319 -0.0259285 -0.00114899 0.0938354 -0.0951875 -0.0563698 -0.0465781 -0.193748 -0.0745611 0.118699 -0.14836 -0.0378725 0.070696 -0.199426 -0.0191757 -0.224916 -0.102945 0.00103738 -0.284266 -0.0121841 -0.096547 0.069195 -0.044131 -0.170241 -0.00651596 0.132641 0.130327 -0.0559166 -0.0016001 -0.085231 -0.267893 -0.115261 -0.0869551 -0.123792 -0.075207 0.0279571 -0.149682 0.234406 0.104688 -0.0399072 -0.0440626 0.193948 0.108455 -0.167891 0.189249 -0.0298576 0.204664 -0.14628 -0.141002 0.0647377 0.378322 -0.0286361 -0.057324 -0.021387 0.154072 -0.1668 0.0402804 -0.00849966 0.0335434 0.328451 0.0805262 -0.172937 0.0613343 0.124595 -0.0922493 -0.194377 0.120347 -0.0438105 -0.0641143 0.0360965 0.177532 0.304182 0.147787 -0.0239659 0.11402 0.0670235 0.052503 -0.048428 -0.0416802 -0.0210913 0.0465145 -0.148088 0.0196846 -0.0507115 -0.121874 -0.055845 0.135548 0.085059 -0.158299 0.275598 0.072386 
mile -0.401308 -0.153468 0.0128229 0.0454861 0.125274 0.0975928 0.0797159 0.0384134 -0.259506 -0.176677 0.0755316 0.258006 0.128589 0.0317168 -0.120193 0.254177 0.0205189 -0.0514302 -0.206256 -0.238918 0.100656 -0.262684 0.134183 0.230461 0.0216612 -0.0707823 -0.162693 -0.134334 -0.0432842 0.225424 -0.00576093 0.291765 0.107752 0.111459 -0.000865414 -0.224939 -0.217549 0.0298828 -0.0408041 0.103467 0.0341411 0.0823757 -0.0014005 -0.166879 -0.0111343 -0.0814555 0.159066 0.0104264 -0.000635872 0.16021 -0.0393891 0.149249 0.0551282 -0.100575 0.0614098 0.0405585 0.255512 -0.0192774 0.0671701 -0.181557 0.0480789 -0.0898754 0.023965 0.229425 0.245616 -0.119467 -0.0401802 0.226718 0.220133 -0.146835 0.186972 -0.0259097 0.231095 -0.0276233 -0.0862249 0.0947164 -0.106489 0.161905 -0.014846 -0.00324521 -0.31918 0.0108126 -0.216524 0.115247 -0.116184 -0.223902 0.310689 -0.0969742 -0.00520873 -0.121563 0.195324 0.0508937 -0.140372 -0.366632 0.055068 0.137526 0.21324 0.0952729 0.260466 -0.0647341 -0.0228314 0.256203 -0.163172 -0.0449427 0.018878 -0.166642 0.0783455 0.0610138 0.00619842 0.0670236 -0.183953 0.149008 -0.0662755 0.0397305 -0.0489954 0.0937865 -0.0199484 0.340525 -0.149655 -0.173458 0.270407 0.150348 -0.0993862 -0.102761 -0.116906 0.16013 -0.155905 -0.0739081 -0.195892 -0.0491171 -0.216898 0.0273199 0.0422136 0.250626 -0.262812 0.10476 0.0381205 0.17617 0.26492 0.0655984 0.0418394 0.014923 0.0257924 -0.171859 0.141467 -0.207105 -0.0181514 0.162008 -0.221877 -0.0291554 0.0531766 0.0206559 0.0978368 0.258438 -0.421571 -0.13597 0.290561 0.110337 0.0892404 0.0265387 -0.0802138 0.174583 -0.0596359 0.159673 0.00922167 -0.154903 0.0125269 -0.177632 -0.206402 0.0464218 0.174239 0.275437 0.24026 -0.112831 -0.132122 -0.145312 0.164522 -0.0676025 -0.0952665 0.183894 -0.142488 -0.0171925 -0.37934 -0.113146 0.114607 -0.0210794 -0.0679508 -0.0331824 -0.04326 0.093284 -0.168138 -0.196826 0.0845222 0.0958603 -0.0650732 0.0424193 -0.0501092 -0.0367453 -0.0239486 -0.210327 -0.055017 0.0165369 -0.195334 -0.0380793 0.0394817 -0.179793 0.031482 0.0424968 0.0388683 0.00542828 0.00412668 -0.172206 0.0587876 0.145778 0.113051 0.300246 -0.0322694 -0.125166 -0.104145 -0.0709723 -0.0708652 -0.0971084 0.260245 0.376223 -0.148179 0.257323 -0.000387811 -0.298565 0.204006 0.057195 0.0298323 -0.0422238 -0.0074954 -0.172253 -0.103188 0.00241952 -0.0797201 -0.292407 -0.00855714 -0.14364 -0.0806321 0.323589 -0.0902788 -0.0600021 0.0557771 0.00704206 0.0581972 -0.148904 0.00393522 0.222898 0.199094 0.0676477 0.382292 -0.333972 -0.0835505 0.392391 
airport -0.335915 -0.0524368 0.294071 0.0600079 -0.224319 0.0460211 -0.331081 -0.150702 -0.324366 -0.000166026 0.147177 -0.0675644 0.136212 -0.120655 0.00428127 0.264895 -0.131005 0.16969 0.0878092 -0.0698467 0.112433 -0.0414621 -0.0289356 -0.2122 -0.115544 -0.077967 -0.00403163 0.0524945 0.240011 0.0975047 -0.0889276 0.00435466 0.133036 0.234009 -0.012984 0.0828702 -0.25836 0.0138409 -0.0749667 -0.160073 0.0605918 -0.0677074 -0.183117 0.132787 0.0657093 -0.27601 -0.220262 -0.488818 -0.0195534 -0.0632476 -0.0844887 -0.0962116 -0.452337 -0.389104 0.347708 -0.0115541 -0.0679974 -0.120693 -0.0671074 -0.49367 0.0593533 -0.348058 0.0882436 0.0819538 -0.103057 0.111276 -0.270933 0.133988 0.146168 -0.305679 0.255617 -0.108937 0.131606 0.0749459 0.12665 0.0966983 -0.166665 -0.0876676 0.0510057 -0.112971 -0.207205 -0.180399 -0.00333149 -0.0986987 -0.147918 -0.0948293 -0.0531568 0.0245228 0.360309 0.279651 0.37679 -0.0671375 -0.164453 -0.0167173 -0.275443 -0.47381 0.0489957 0.220766 -0.244817 -0.56881 0.0555126 0.0149371 -0.0814529 0.158003 -0.0900511 0.112052 -0.28157 -0.153179 -0.322626 -0.0139685 -0.365045 0.140367 -0.1266 -0.159039 0.0260949 -0.0961529 -0.296901 0.377687 0.0945961 -0.249359 0.0683103 -0.0908796 0.0952187 -0.108255 -0.142856 -0.178124 -0.143176 0.000949702 -0.0222819 0.106293 -0.208206 -0.158394 0.013524 0.152088 -0.205664 0.136396 0.0444036 0.0112801 0.243273 0.0774507 -0.102302 -0.101425 0.208447 0.0945581 0.156668 -0.0812555 -0.00463374 -0.180855 0.268946 -0.189273 0.502504 -0.173165 0.154435 0.380219 0.0666754 0.174441 0.352681 0.169994 0.196308 0.314234 -0.0338003 0.371678 -0.278987 0.169919 0.159044 0.0372555 -0.197933 0.116531 0.160926 -0.171831 0.109308 0.0980826 0.355445 -0.147909 -0.182911 -0.166818 -0.175003 0.266749 -0.273917 -0.21382 -0.147235 0.0881597 0.0445558 0.176535 -0.215166 -0.323867 -0.0988171 0.164714 -0.0848175 0.293652 0.111502 0.0885977 0.166693 0.130436 -0.0970028 0.0208648 0.11751 0.469748 0.0694926 -0.0414219 -0.0847504 -0.00399151 0.178741 0.185504 -0.0510285 -0.0064714 -0.204669 -0.157778 -0.21231 -0.015207 0.00518296 -0.0799284 -0.160651 0.123362 0.199798 -0.0409738 0.219215 -0.167698 -0.181848 -0.228616 0.0202649 0.199553 0.103791 0.0993045 0.128016 -0.459884 -0.0573698 -0.26966 0.0246279 -0.0463375 -0.0162509 0.0460293 -0.104294 -0.0280271 0.199621 -0.342487 -0.226183 -0.448137 0.108765 -0.500646 -0.073565 -0.146486 -0.096049 -0.64111 -0.011883 0.120914 -0.0189245 -0.127386 0.0922702 0.0857723 -0.0161078 0.0779984 0.176975 -0.133185 0.0530529 0.258853 
population -0.162575 0.246867 -0.184774 -0.0897731 0.0200624 -0.00743161 -0.190771 0.107955 0.0127007 0.105089 -0.146116 -0.023356 0.423665 -0.205593 0.329482 0.0544148 0.0017025 0.0502494 0.117263 0.0888113 -0.168005 0.0422009 0.0277868 0.0387318 0.312323 -0.00314467 0.0542933 0.057041 0.144757 -0.107194 0.00504655 -0.183202 0.00394264 0.0805561 0.390389 -0.27733 0.0517686 -0.0758177 0.0631782 -0.115286 0.160927 -0.146542 0.0881128 -0.350745 0.020796 -0.0866964 0.238779 -0.100006 0.124465 0.31635 0.117657 -0.097555 -0.0865007 0.219253 -0.0990674 0.0954273 0.12391 0.133164 0.112432 -0.0179851 -0.0642734 0.153059 -0.172298 -0.161011 0.114789 0.197996 -0.0590151 -0.187153 0.0793064 -0.283281 -0.223363 -0.0451585 0.149368 -0.0519905 -0.0265669 0.118453 0.00336652 -0.00772999 0.00926428 0.241312 0.108874 0.22507 0.0503517 -0.153206 0.105393 0.0101075 -0.103494 -0.246054 0.159214 0.0575605 0.142174 -0.182172 0.0858041 -0.0600764 0.082059 0.163844 -0.0979449 -0.08952 0.212993 0.20446 0.0400313 0.294013 -0.0536385 0.0412486 -0.0152329 0.00840244 0.155434 0.261177 -0.0310283 0.19365 -0.21162 0.0600088 0.0285837 0.124756 -0.339668 -0.0992993 -0.0981883 -0.168975 -0.30659 0.00123881 0.0705242 -0.206938 0.200292 0.281469 0.0197088 -0.14877 0.0109852 -0.288194 -0.129026 0.224039 -0.0362273 0.166773 -0.171346 0.172767 0.00395663 0.215452 0.132452 0.135771 0.211957 0.00113888 -0.171296 0.118737 0.0214046 -0.190086 -0.131811 0.139269 -0.0219318 0.212471 -0.194333 0.044897 0.131007 -0.135384 0.125214 0.113291 -0.141214 -0.3288 -0.158505 0.0808817 -0.104253 0.0349074 0.150354 0.0430042 0.0164737 0.183761 0.0422345 0.0518874 -0.242655 0.164073 -0.0485231 0.240135 -0.0503117 0.232343 0.176072 0.161353 -0.179002 -0.403844 0.0705746 -0.0512749 -0.149028 0.0363934 -0.0280639 -0.0303133 -0.151219 -0.149768 0.00364374 0.0661241 0.00157366 0.200272 -0.0148727 0.134138 0.289793 -0.121655 0.0559567 -0.257905 -0.0429665 -0.164224 -0.0461996 0.138219 -0.00106004 0.245037 0.0214745 0.254938 0.019742 0.0814002 0.230798 -0.0903458 -0.120994 -0.0266698 0.00136929 -0.358451 0.0470349 0.0439821 0.00882123 -0.131497 -0.123853 0.204803 -0.0158977 -0.0475593 0.00311079 -0.0239977 0.0217296 0.190909 0.335159 -0.0870143 0.028396 -0.161863 -0.220746 -0.129509 -0.241697 0.163491 0.0632822 0.0214015 -0.191035 0.148023 0.014578 -0.00637164 0.242571 -0.0709406 0.0618924 -0.191662 -0.113159 0.0515623 -0.223868 0.0569742 -0.123118 -0.0244731 0.0708156 0.201608 0.00901505 -0.0969909 0.0658446 0.0211024 0.118408 -0.065756 0.104833 0.28269 
planning -0.0816107 0.040447 0.348068 0.108268 0.0928064 -0.107729 -0.00722523 0.0684616 -0.132022 0.220499 0.0691942 -0.0322564 0.0960654 -0.104949 0.0126831 -0.097021 0.0617523 -0.0629865 0.0905329 0.090478 0.0382456 0.0196633 0.0448749 0.0198118 0.119995 0.0807577 0.0769783 -0.149288 0.0433981 -0.0402825 0.000938876 0.291242 0.352862 -0.0703331 0.0949748 0.104221 -0.0843073 -0.0411388 -0.137947 0.00446783 0.106556 -0.0439363 -0.0378292 -0.053395 -0.345923 -0.0949965 0.0220849 0.0976108 -0.082975 -0.0927531 -0.102636 0.015105 -0.129862 0.0195895 -0.0260953 0.100806 0.0977292 -0.103357 -0.0089571 -0.180389 0.0155051 -0.0887101 0.127203 -0.0971087 -0.269215 0.0152575 0.00594593 0.00515861 -0.0235211 0.0451311 -0.134286 0.045456 0.0719445 0.0805338 0.130294 0.156297 0.0974628 0.0315199 0.0236431 -0.0240632 -0.0470376 -0.0305809 0.0231982 -0.0373404 -0.124557 0.0673586 -0.0135443 -0.153696 -0.00380227 -0.134945 0.101472 0.185577 -0.0370517 -0.244382 -0.100246 -0.114423 -0.00203771 0.0869926 -0.0405281 -0.0942978 0.165334 0.174804 -0.177281 -0.010702 -0.21372 -0.0620533 -0.106829 0.0121384 -0.138445 -0.134629 -0.0664029 -0.216974 -0.121089 0.0284463 -0.219308 -0.0704352 -0.187304 0.14115 -0.175252 -0.000418106 0.0720526 -0.0407259 0.125728 0.176004 -0.0262884 -0.0497898 0.0905682 -0.093583 -0.205074 -0.0238525 -0.0204991 0.045641 0.0483157 0.054912 -0.115395 0.00768069 -0.132442 0.057572 0.146815 0.121929 0.0877019 0.104022 0.0866617 0.0538997 0.0970322 0.0485873 -0.0392032 -0.191905 0.167812 0.0311502 0.0299526 0.131565 -0.128374 -0.0274629 0.0555003 0.0554071 0.0399538 0.0646047 -0.0999464 0.0831445 -0.149837 -0.0780514 -0.0101004 0.0405682 -0.0335891 -0.0620671 0.137693 -0.00086104 -0.0730121 0.0055536 -0.124489 -0.12041 0.0895577 -0.208609 -0.0388274 -0.171039 0.00207156 0.0960154 -0.0902984 -0.0282553 0.0667331 -0.147523 0.0446005 -0.12962 0.0825084 -0.0677173 0.00196754 -0.0916461 -0.00866004 -0.0633545 -0.0516272 -0.0966473 0.0373948 -0.0748175 -0.0950188 -0.0933942 -0.0793308 -0.0648387 -0.170798 0.204129 -0.0363235 -0.0539683 -0.0036303 -0.0368083 -0.0706439 0.00945622 -0.0270839 0.0405654 -0.119436 0.0489256 -0.118519 -0.0155693 0.0424765 -0.0208797 -0.1921 0.0418898 -0.037493 0.062322 0.0128951 -0.00853508 0.0336414 0.177787 0.0936526 0.0608394 0.26761 -0.115452 -0.120493 0.0664842 0.0798004 0.000111814 -0.0342476 0.0899714 0.140193 -0.0909908 -0.0814188 -0.0377912 0.051139 0.0482373 0.0546455 -0.242924 -0.157621 -0.0751279 0.154655 0.0351771 0.0150865 0.00928832 -0.0988695 0.0329875 0.0952373 -0.126253 0.0376221 0.0894965 0.202838 0.0349731 0.215868 -0.141783 
canyon -0.160113 -0.149113 -0.272951 0.0495238 0.279718 0.260518 -0.140789 -0.237109 -0.267725 -0.154227 -0.0848423 -0.0416386 -0.127557 -0.0736849 -0.163723 0.18209 0.167414 -0.0148819 -0.265129 0.24035 -0.156624 -0.21911 0.417834 0.203098 0.126881 -0.216539 -0.225264 -0.071663 -0.267726 0.136699 -0.247808 0.14177 -0.0780392 -0.218245 -0.0426414 0.318362 0.133755 0.00598993 -0.0571354 0.0344901 0.109398 -0.309934 0.00298107 -0.171386 0.0779037 0.242335 0.168374 -0.268739 0.0604064 0.107314 0.15678 0.300053 -0.017956 -0.168051 -0.258771 -0.25509 0.145703 0.136589 -0.154588 -0.284342 0.27025 -0.330584 -0.122374 0.363538 0.11007 -0.322331 -0.292581 0.442251 0.255849 0.247167 0.265407 0.0939253 0.22316 -0.308738 0.00855021 0.0836453 -0.0924032 0.452702 0.389692 -0.0181661 -0.036415 0.358401 -0.337642 0.0519915 -0.126098 0.127973 -0.0952673 0.121509 -0.146591 -0.241147 0.15551 -0.0967746 -0.393675 -0.0639863 0.0716377 0.361918 0.0434572 0.339318 0.278758 0.410786 -0.267492 -0.121202 -0.022053 -0.186369 -0.345416 -0.182876 -0.293531 0.332886 0.038636 0.26201 -0.178004 0.240732 -0.070507 0.190679 -0.117836 0.208242 -0.235755 0.225397 -0.307099 0.0113668 0.128046 -0.187568 -0.209439 -0.283658 -0.253383 -0.129035 0.215996 0.164902 -0.0505376 -0.0466502 -0.148657 -0.306692 -0.23511 0.0406737 -0.386315 -0.110317 -0.330649 0.032023 0.0309641 0.0770862 0.428688 0.171495 -0.388308 -0.29557 0.0278273 -0.16225 -0.250546 -0.136815 0.0767802 0.257795 -0.0439252 -0.0814393 -0.183387 0.0390643 -0.615174 0.136541 -0.228627 -0.0904632 -0.0400902 -0.0378071 0.00745527 0.109259 0.133522 0.265444 -0.156271 -0.283449 -0.149098 -0.178377 -0.0815451 -0.150517 0.0238785 0.105195 0.146912 -0.313165 -0.249003 -0.463197 0.159123 0.0340657 -0.0850927 0.156673 0.278879 0.129422 -0.125887 0.224582 0.278229 0.200285 -0.269898 0.000688346 -0.21211 0.0945968 -0.335365 -0.107661 0.158591 -0.072971 0.238955 -0.0281121 0.221991 0.200793 -0.202648 -0.233377 -0.31322 0.0870372 -0.103603 -0.243182 -0.174846 0.0251881 -0.0544788 0.269144 0.0100756 0.566977 0.254396 0.133136 0.0719586 0.0573387 0.0832652 0.0923829 -0.20902 -0.260026 -0.0763028 -0.0518783 -0.138133 0.086493 0.275976 0.166397 -0.373972 -0.16832 -0.154646 -0.268277 0.358281 0.231114 0.0495367 0.02545 0.115411 0.24081 0.0285938 -0.0243994 0.0236444 -0.519124 0.153787 -0.486683 0.0751809 0.418985 -0.0515924 -0.0368035 0.237308 -0.0729634 0.366219 0.0135421 -0.149425 0.182037 0.0149165 -0.197448 0.546676 -0.0646092 -0.0430057 0.152273 
delay 0.157883 -0.159364 -0.0122094 0.130258 -0.109675 -0.0648309 -0.126093 0.0578175 -0.247013 -0.00473099 0.09831 -0.107834 0.119894 0.0392072 -0.0660946 -0.0303254 -0.143968 0.107925 -0.124792 0.125638 -0.0399154 0.00253526 -0.0993616 -0.0321172 -0.258538 0.0727356 -0.0384212 -0.1744 0.0516602 0.000215372 -0.0775351 0.00647923 0.213075 -0.161031 0.0161393 -0.0231922 -0.161453 0.141756 -0.156616 0.0948375 0.129288 0.118766 -0.00750816 0.0679858 -0.0678278 0.0425613 0.166571 0.225774 -0.195495 -0.11883 -0.00434521 -0.278015 -0.224169 0.0790435 -0.0472181 0.101846 0.00317566 -0.0981855 -0.144605 -0.176544 0.0853342 -0.230905 0.209667 -0.0766182 0.123179 -0.070185 -0.0144781 0.203957 -0.154858 0.163496 -0.164712 -0.00932999 0.0279291 -2.72233e-05 -0.116248 0.0430632 -0.090041 0.00958844 0.193202 0.274841 -0.113273 0.127691 0.0621296 -0.221331 -0.0313373 -0.153554 -0.122288 0.10356 -0.153006 0.15044 -0.029707 0.0818636 0.114072 -0.0210227 -0.363918 -0.167598 -0.158546 -0.0314716 -0.0480383 -0.12409 -0.00546261 -0.0260501 0.10605 0.120894 -0.0252389 0.0319307 -0.103343 -0.29828 0.0597938 -0.118214 0.157043 0.184313 -0.184738 0.13216 -0.118091 -0.0949013 -0.305344 -0.0861105 0.0368541 0.0232879 0.0301778 -0.388232 -0.0491542 0.0761737 -0.0968002 -0.0931252 -0.0538642 0.129655 -0.0443063 -0.030139 0.210235 0.0316856 0.155124 0.00845517 -0.0929645 0.196719 0.0522911 0.0147281 -0.00771 -0.0431601 0.107622 0.141462 0.127466 -0.111753 -0.0248333 -0.0951999 -0.0262268 -0.0986999 0.131054 -0.126709 -0.00344761 0.0184588 -0.0189939 0.183808 0.157101 0.146172 0.0422704 0.00937219 -0.00267458 0.178187 -0.101173 0.0297352 -0.235871 -0.0301416 0.0526866 0.0958605 -0.163295 -0.160345 0.129216 -0.0226858 -0.0582235 0.0195314 0.120303 -0.0215302 0.132591 -0.199063 0.0739068 -0.0893386 -0.183826 -0.0625886 -0.0366612 -0.149028 -0.0990358 0.156303 0.206575 0.00299903 -0.11083 0.099278 -0.224907 -0.12784 0.155729 -0.0697671 -0.0146253 0.0435783 -0.0730064 -0.223985 -0.261582 -0.22075 -0.0814044 0.0899803 0.0990966 -0.114199 0.14832 0.0713057 -0.0704478 -0.0170891 0.0781273 0.112144 2.35076e-06 0.04398 -0.168928 -0.132005 -0.273047 -0.0667276 0.0204012 0.121754 0.133861 -0.237674 -0.102417 0.0346086 -0.14477 0.0311928 0.227389 -0.0200505 0.177393 -0.155742 -0.108643 0.211248 -0.082909 0.0350393 -0.0431206 0.121682 0.0229278 -0.106813 0.150383 0.178306 0.0882781 0.0399657 -0.205774 -0.117472 0.0921417 0.0421692 -0.0549928 -0.0386947 -0.121478 0.23222 -0.0891282 0.0346994 0.0345587 -0.00222488 0.126874 0.039169 0.131675 0.0270294 0.0141126 -0.00740077 
size -0.168896 -0.0690006 -0.0402266 0.0569913 0.0257259 -0.00359741 0.237143 0.0538678 0.0746594 0.00490337 -0.110757 -0.00305684 0.0381013 -0.127196 0.122163 0.0616167 -0.0821917 0.00310239 -0.107936 0.0396159 -0.0369862 -0.0511191 0.176133 0.133417 0.0790106 -0.0369048 0.113639 -0.0217935 -0.113388 -0.155714 -0.217042 0.163125 0.147913 0.0358235 0.15826 -0.185596 0.120437 -0.165617 -0.0304571 0.149575 0.0156074 0.113008 0.00949198 -0.303561 -0.0261584 -0.0883363 0.0636381 0.0387786 0.137156 -0.0721275 0.0298603 0.00715054 0.0260716 -0.0667384 -0.167749 -0.0780872 0.0703935 -0.0651995 0.02824 -0.0224505 0.0963493 -0.0196634 0.00254616 0.023523 0.0184805 0.0933473 -0.15942 -0.0524868 0.0980233 -0.0691312 -0.0150312 0.0737048 0.101377 -0.0432592 -0.123667 0.0784701 -0.119818 0.178169 0.0838337 0.166827 -0.00566425 0.0346133 -0.0974208 -0.0869906 0.126222 -0.0510592 -0.0813514 -0.151367 0.157883 0.0995358 0.229267 -0.132932 0.109796 -0.125049 0.0343479 -0.212055 -0.062158 0.0978209 0.096333 -0.0703585 -0.0474984 0.48591 -0.0882617 0.0978672 0.0451606 -0.027563 0.271377 -0.0229201 -0.0265853 0.204728 -0.160915 0.0869206 0.193288 0.0270649 -0.0278899 -0.0778588 -0.0712463 -0.0851459 -0.0914894 0.0405098 0.183854 -0.0780565 0.00965563 0.0923284 0.143531 0.104701 0.0289487 0.029491 0.0137841 0.0539059 0.0358344 0.293141 -0.0662774 0.360083 -0.17698 -0.0574519 0.152998 -0.0426101 -9.33901e-05 -0.089965 0.199007 -0.0104315 0.127362 -0.00141461 -0.0821901 -0.0936837 -0.05981 0.396074 -0.019653 -0.0603629 0.0231925 -0.121023 0.0579051 0.00478558 -0.0426028 -0.265349 0.0906994 0.0588326 -0.158148 0.0149748 0.197146 -0.0313908 -0.113272 -0.0391908 -0.0575465 -0.00088497 0.167157 -0.0284624 0.0271369 -0.130546 -0.0614375 0.191728 0.086672 0.0229474 -0.0693926 -0.123579 0.0531727 0.0134471 -0.0390669 0.189483 -0.252712 0.0323625 -0.145806 -0.0153443 0.21915 0.00452118 0.014987 -0.0597455 -0.0138749 0.11547 0.234184 -0.261992 0.138846 -0.23997 -0.0180736 -0.0353721 -0.0373609 -0.193775 -0.0796511 0.0291704 -0.0233909 0.0328815 0.190647 -0.187973 -0.0192286 0.0913427 -0.00188617 0.196065 0.000210265 -0.0129229 0.112825 0.15675 0.0649501 0.059804 -0.0355518 0.102286 -0.0726355 0.124745 0.122393 0.00989352 -0.00827601 -0.0388925 0.29546 0.140204 -0.0593606 -0.295517 -0.283173 -0.297098 0.0511856 -0.010261 -0.130625 0.100358 -0.145936 0.000835693 -0.114703 -0.154567 0.112512 0.0419481 0.194889 -0.0901763 0.110522 0.118583 0.0950573 -0.0634737 0.0800491 -0.0648882 -0.0665199 0.128584 0.0494058 0.00970234 0.0644587 -0.068606 -0.0417548 0.116382 -0.0700386 0.188357 
peace -0.197553 -0.215419 -0.126001 0.0987712 -0.337745 -0.052502 -0.20692 0.154766 -0.157357 0.0798903 -0.386863 -0.117188 -0.200717 -0.111351 0.119065 0.356628 -0.0833487 -0.115398 -0.073591 0.0891303 -0.0574218 -0.146321 -0.219308 -0.271685 -0.216735 -0.21701 0.110777 -0.517076 0.463808 0.0538096 0.145133 -0.360378 -0.270303 -0.489469 0.326526 0.0717008 0.172859 -0.219265 -0.12789 0.317998 -0.0989679 0.156405 0.17977 0.178363 -0.185791 0.0119208 -0.124559 0.154051 -0.347648 0.0385309 0.191305 -0.0335801 -0.0720038 0.21623 0.0121651 0.0424933 -0.458049 0.0178656 0.0932399 0.056249 0.0305855 -0.5244 0.0391892 0.421684 0.100079 -0.145498 -0.0613576 -0.240991 0.109285 -0.201653 -0.207779 0.0362703 0.323391 -0.0985613 -0.0735805 0.0666473 0.253657 -0.342755 -0.116247 0.198465 -0.117226 -0.237273 -0.42036 0.238592 -0.322444 -0.484808 -0.0514105 -0.0616944 -0.187356 0.127548 0.00657282 0.0196356 0.0539591 0.00493112 -0.0852373 -0.454805 -0.0475792 0.18893 0.0575904 0.413156 -0.167244 -0.00637921 0.0683599 -0.145426 -0.0640185 -0.0985903 0.11748 -0.0881747 -0.185552 -0.13776 -0.305358 0.367502 -0.264992 -0.122653 0.133615 0.223856 0.262311 -0.282567 0.03964 0.0438921 0.110095 -0.366114 0.256323 0.272001 -0.697193 0.0627153 -0.393177 -0.265677 -0.214794 -0.08016 0.0151556 -0.186399 0.0293067 -0.097897 -0.00965384 0.204512 -0.161611 0.137367 0.248729 0.147934 0.165433 0.127012 -0.0511777 0.11031 0.0935657 0.123889 -0.133895 -0.17403 0.0147045 -0.0569164 -0.13566 -0.0193944 0.0722425 -0.223567 -0.238935 0.114731 0.0369727 0.251353 -0.0102181 -0.135098 0.121342 0.103796 0.183776 0.180207 -0.102788 -0.151157 -0.101622 0.173573 0.0935191 0.0433676 -0.383667 -0.180265 -0.24405 -0.216524 -0.0461996 0.2477 -0.0402685 0.135469 -0.186635 0.109438 0.136626 -0.192456 -0.0546086 -0.0306048 -0.0919154 -0.439401 0.0483398 0.195396 -0.209989 -0.0958697 0.108807 0.201447 0.00566506 0.166773 -0.194702 -0.452788 0.0757354 0.304559 -0.0194328 -0.0998366 -0.156658 -0.197239 0.202288 0.00339482 0.0183423 0.0226464 -0.0342969 -0.156242 0.0031742 0.316685 0.160046 0.129874 -0.256546 -0.0172484 -0.026315 0.120718 0.00501085 -0.12795 0.19991 0.00857028 0.475754 -0.228928 0.135536 -0.0264642 0.285905 0.0339846 -0.0634915 -0.383322 -0.225386 0.285343 0.136895 0.0629436 -0.109129 0.263532 0.125305 -0.042393 0.214016 0.145437 0.0295613 0.149168 -0.135427 0.0351402 0.0195098 0.113019 0.0329792 0.02248 0.0664762 0.19103 0.142923 -0.056712 -0.168005 -0.0567296 0.133906 -0.0981929 0.137728 0.245312 
science -0.106977 -0.257882 -0.153134 0.11974 -0.11511 -0.0637023 -0.296589 -0.165986 -0.00563506 0.153476 -0.154168 -0.220703 -0.368625 -0.138334 0.202624 0.0195356 0.24381 0.0202547 -0.206638 0.161179 -0.0711207 0.0643556 -0.107292 0.250796 0.154167 -0.0648271 0.0976804 -0.444043 -0.0479356 0.0901115 -0.0611782 -0.112285 0.0407368 0.0583371 0.0685027 0.041107 0.229783 0.00649401 -0.28468 -0.027846 -0.156875 0.0817639 0.0964978 -0.13764 -0.0124292 0.189854 0.0635548 -0.0503721 -0.158511 -0.0173381 -0.101247 0.0885314 0.0376742 -0.061152 0.00877092 -0.0801374 -0.0923059 -0.132065 -0.230802 -0.0664143 0.118977 -0.142278 0.326817 -0.143489 -0.0305734 0.12764 -0.123273 -0.158102 -0.083822 -0.0429857 0.0247937 -0.267666 -0.17489 0.324212 0.236238 0.216946 -0.0595698 -0.13935 0.113374 0.209905 -0.126299 -0.146383 -0.0479444 -0.204092 0.197646 0.0317205 -0.0971986 -0.151623 -0.133063 -0.165508 -0.155936 0.160249 -0.0260601 0.0390529 0.321472 0.115398 -0.331243 0.0872702 0.112376 0.0792549 0.0726157 -0.169581 0.0223824 0.084751 -0.179143 0.145471 0.216833 0.0799946 -0.137099 -0.225554 0.278907 -0.0922191 -0.0776267 -0.152193 0.161644 -0.034221 -0.0965834 -0.138141 0.199432 0.0752832 0.0113426 -0.0584348 0.0139991 -0.117706 -0.0792711 -0.208998 -0.203165 -0.0801792 -0.0674793 0.0152048 0.161694 0.154908 -0.049914 0.0497821 0.159545 0.16016 -0.0721753 0.158765 0.0900417 0.134669 -0.117474 -0.198012 -0.0552481 0.00213177 -0.135266 -0.246309 -0.0172911 -0.312032 0.0219726 0.232547 0.143225 -0.0598841 0.026301 0.0423684 -0.127772 -0.140506 0.0276789 -0.0353657 0.00352652 -0.114693 -0.200353 -0.0159901 -0.133951 -0.0264882 -0.0300684 -0.297571 0.0714176 -0.187894 0.0380206 -0.202334 -0.177124 -0.0236696 0.0941347 0.204704 -0.294119 0.0625941 0.0312847 -0.116104 0.00634754 -0.0197984 -0.184715 0.254289 0.190224 0.112017 0.0501096 0.0145382 0.0394665 -0.0856909 0.190038 0.0831254 0.270435 -0.0103001 -0.0168798 0.0175075 -0.0942618 0.0369634 0.0706239 0.356135 0.157536 -0.0235578 -0.0164128 -0.104919 -0.204942 -0.105438 0.240301 -0.0658387 0.12651 0.202888 0.125183 -0.122919 -0.0761855 0.124453 -0.191279 -0.00997291 0.00884042 0.241889 -0.22271 0.227786 0.0375833 0.127441 0.0918203 0.2304 0.632156 0.0716461 0.145529 -0.330109 0.193581 0.10423 0.000687995 -0.091371 -0.160844 -0.10352 0.103793 0.0955438 -0.128967 -0.151053 0.0759709 -0.059367 0.431815 0.0791497 0.0327866 -0.0248199 0.142277 -0.0471928 -0.106257 0.0929379 0.134549 0.181391 0.0701772 -0.15248 0.00137983 0.153452 0.22309 -0.127817 -0.21186 -0.11179 
dawn 0.0700873 0.00649071 0.0150588 -0.1658 0.150025 0.043189 0.0164559 -0.0143309 -0.0341245 0.212295 -0.125102 0.00285052 -0.0906506 0.201295 -0.0387438 0.291844 -0.103823 0.0406252 -0.254588 0.0673432 0.196684 -0.258063 0.181269 0.00993317 -0.12516 0.0708919 -0.163701 0.0572421 0.147657 -0.0915542 0.166304 -0.0897197 0.0415414 -0.00414061 0.0896111 0.148818 -0.183729 -0.0549385 0.0286375 0.0828034 -0.2031 0.118955 0.0566 -0.0158278 0.0516992 0.0784965 0.11864 -0.0732472 0.0166625 0.139814 0.171486 0.171683 -0.11909 -0.0231876 -0.0770661 0.0462697 0.22448 -0.0224967 -0.214583 -0.199558 0.060336 -0.342918 0.065082 0.126839 -0.0895689 -0.0946187 0.13233 0.0408046 0.060993 -0.00293221 0.0699034 -0.042852 -0.0392414 0.120116 -0.0597936 0.134588 -0.169727 0.0823506 -0.0598922 0.0299147 -0.0609295 0.0074159 0.134577 -0.0982194 -0.00245714 -0.0513922 -0.140767 0.095338 -0.0189194 -0.145114 0.11583 0.0563312 -0.0625547 -0.0908213 0.101496 0.0716007 0.253131 -0.0354371 0.0206106 0.131766 0.149078 0.245311 -0.118287 0.00333044 -0.181757 -0.113005 -0.129049 -0.11348 0.0638742 -0.13112 -0.130787 0.235888 -0.281215 -0.175381 -0.128176 -0.174411 -0.1062 0.14597 0.0618248 0.0341646 0.168205 -0.243065 0.147837 0.154811 -0.193794 -0.0372267 -0.0516277 -0.242559 -0.0530828 0.0804407 -0.197372 0.043834 0.243207 0.0489002 -0.179227 0.076449 -0.110325 -0.245878 0.0624106 0.243395 -0.108464 0.0710462 -0.237973 -0.0514351 0.00354369 -0.179285 0.299454 -0.119208 -0.104097 0.0406553 -0.150932 0.123138 -0.0442844 0.158184 -0.253772 -0.203512 0.332227 -0.183937 0.0424571 -0.0168431 -0.0376989 0.0867352 -0.159994 0.241771 0.12263 0.112343 -0.0962997 -0.351699 -0.132228 0.244154 -0.083164 0.204109 0.112255 -0.073147 0.0968163 0.0359244 -0.0351443 -0.0359351 -0.103079 -0.184296 -0.0315902 -0.122982 -0.0631584 -0.149609 0.125317 0.0801049 0.0920011 -0.0488237 -0.206781 0.061558 0.0579095 -0.0288636 -0.0370704 -0.194346 -0.235613 -0.0804045 0.178982 0.259592 0.0444464 -0.29798 0.0725689 0.00745482 0.0233613 0.0167883 0.0850052 0.14866 -0.0458133 0.086857 -0.246633 0.06031 0.0182553 0.0792652 0.0818515 -0.0820912 -0.00654628 -0.0899036 -0.0675577 -0.28327 -0.0210925 0.298126 -0.171128 0.0353355 0.05877 0.107152 0.10761 -0.0514471 0.0690806 -0.0995894 -0.0437968 0.0809091 0.0081239 -0.248957 0.10022 -0.103706 -0.0739797 -0.0676955 0.242804 -0.112069 -0.112762 -0.208701 0.126958 -0.185185 -0.0441947 -0.0473079 -0.0241278 0.0249916 -0.0448056 0.069483 0.0661402 0.0361049 0.099989 -0.0605164 0.0902338 -0.269096 0.233523 -0.0580317 
brother 0.275749 -0.0321663 -0.0774471 -0.0236138 0.26794 0.0690657 -0.138899 0.0825538 -0.210164 0.207412 0.0736139 0.0709481 -0.107041 -0.0114707 0.326669 0.324988 -0.0585017 0.343308 -0.0644078 0.0853786 0.0426224 -0.0811475 0.213778 -0.0680773 0.0434158 -0.0752672 -0.0674389 -0.119152 0.309556 -0.108627 -0.0971288 0.0925439 0.0911351 0.0886553 -0.266166 -0.314745 -0.22295 0.0317333 -0.298721 0.200487 -0.0780704 0.130848 -0.234994 0.0322019 0.157017 -0.183553 -0.0696296 0.192348 -0.0833433 -0.168798 -0.227397 -0.129882 -0.0979781 -0.191788 -0.00588208 0.187325 0.147105 0.297007 0.049507 -0.256991 0.42289 0.108718 0.448577 0.207292 -0.123458 -0.230648 -0.227565 -0.0196112 0.22567 0.127565 0.0430773 -0.352715 0.352799 -0.0752472 -0.0157549 -0.322749 -0.0294741 0.0923103 0.062428 0.0476302 -0.166106 0.0826996 0.0309117 0.0382008 0.183742 -0.108479 -0.158126 -0.217509 0.0380916 -0.0708947 0.159362 -0.18106 -0.0593473 0.0229059 0.0386949 -0.12416 0.184747 -0.0446333 -0.0412138 0.0715524 0.0370519 -0.0410705 0.141573 -0.216316 0.0537325 -0.23845 -0.280029 -0.152575 0.102493 0.0462343 0.191436 0.0212904 0.157387 -0.0685825 -0.0763808 0.14146 0.179994 -0.0938476 -0.223355 0.15321 -0.0925769 -0.137621 0.125788 0.495527 -0.19056 0.0625366 0.209337 0.0187362 0.105843 -0.0161739 -0.166756 0.146451 0.0941959 0.166204 0.0702292 0.0922963 -0.10762 -0.0607467 0.0986992 -0.0765751 -0.132742 -0.0869569 -0.119453 0.193564 0.0773899 -0.082802 0.0328709 -0.30209 -0.312017 0.052246 0.157914 0.154824 -0.013302 -0.0672357 -0.194356 0.149502 -0.127078 -0.172658 0.00600559 -0.27766 0.00231874 0.313052 0.0869265 0.246756 -0.00911312 0.167751 -0.00695602 0.0287347 -0.118112 0.131984 -0.147043 0.061815 -0.313338 -0.351876 -0.0975572 0.0939955 -0.114465 0.254146 -0.024157 0.0309278 -0.197128 0.0387429 0.209987 0.228325 0.179919 0.121842 0.247861 0.0181295 0.239749 0.137612 -0.0371422 -0.0838354 -0.106105 0.0166305 -0.140494 -0.0290005 -0.174473 0.159701 0.0113088 -0.169425 -0.16052 0.257831 -0.0537892 -0.0197098 0.0132481 0.226494 0.23057 -0.0424786 -0.0397183 -0.0154083 0.0066107 -0.126079 -0.00786495 0.141203 0.24478 -0.0407085 -0.12325 0.102405 -0.0173254 -0.0929406 -0.313676 0.184814 -0.229416 -0.0600691 0.224067 -0.122912 -0.112791 -0.0855023 0.0132156 0.0379585 0.0451301 0.163154 -0.040728 0.080282 0.124027 -0.0351693 -0.0991499 0.212573 0.346596 0.193512 -0.164807 -0.0279032 -0.0313955 -0.0693261 -0.26028 -0.00223832 0.195689 -0.0766103 0.0548783 0.0763252 -0.0773918 -0.0238924 -0.0217064 -0.198014 0.095288 0.024871 
wine 0.0596833 0.130732 -0.0463939 -0.142265 -0.176001 -0.127839 -0.325228 -0.0321178 -0.207322 -0.289239 0.0348399 0.284777 0.168192 -0.00497286 -0.101745 0.153712 0.238975 0.192613 0.395117 0.237871 0.0298413 -0.0247584 0.37793 0.118564 0.116465 -0.0654874 -0.331521 -0.288323 -0.13049 0.0500939 -0.199445 -0.122222 0.0935642 -0.0635435 0.269133 0.0755632 -0.0655914 -0.242584 0.0317167 -0.392974 -0.105575 -0.0699455 -0.0858743 0.0979174 0.139233 0.0762302 0.182656 -0.100417 0.0947216 -0.00476136 -0.177947 0.0920062 -0.198674 -0.105407 -0.288411 0.0171328 0.15382 -0.1118 0.214734 -0.0938909 0.480221 -0.200518 0.322784 0.155129 0.258258 0.102934 -0.2235 -0.187315 0.159434 0.0918595 -0.153329 0.159873 0.00391711 -0.275188 -0.250237 0.0167583 -0.0863106 -0.361161 -0.430916 -0.0678977 0.0531774 0.0200245 0.295265 -0.228288 -0.046096 0.0903169 0.144533 0.289608 -0.140299 -0.418222 0.0914448 -0.0867346 -0.0117943 -0.233609 0.283662 0.0748582 0.0466662 0.0947571 0.375059 0.397507 -0.291638 0.243221 -0.0642713 -0.0865817 0.170085 -0.235041 -0.216166 -0.0135381 -0.166902 -0.204826 -0.0406908 -0.0287601 0.119974 -0.0855143 0.310458 0.110538 -0.431723 -0.167903 -0.0110984 0.102688 -0.201035 -0.0237072 -0.279227 0.0610114 0.137054 -0.0366496 -0.209576 0.222604 0.082009 0.42114 -0.0146497 -0.32241 0.0547748 0.533258 -0.497304 0.126097 -0.220508 -0.00981495 -0.0408433 0.113263 0.0830784 0.0775937 0.246585 -0.0306559 -0.105545 -0.0550933 -0.141445 0.147733 0.488371 -0.371195 0.0660953 -0.14766 -0.20285 0.0544798 -0.219356 0.0278934 -0.0542053 0.0294411 -0.0122927 -0.032789 0.438175 -0.300013 -0.0204131 0.0623685 -0.253155 -0.510006 -0.205126 -0.179384 0.157739 -0.19826 -0.130884 -0.235428 -0.182355 0.112368 -0.303753 0.149726 0.0407733 -0.172265 0.27589 0.0659903 0.119401 0.185897 0.164846 0.42772 -0.152503 -0.0747093 -0.0313629 -0.344098 0.157439 0.114559 -8.83056e-06 0.00655844 0.0708037 0.0782699 0.255109 -0.118488 0.0185046 0.359598 -0.0764467 0.215395 -0.393656 -0.130476 -0.285244 -0.125217 -0.0132501 0.0386682 0.00819246 0.0497045 0.166325 -0.150273 -0.359788 0.193201 -0.0115258 -0.0493122 0.00178261 -0.0122062 -0.139322 0.172023 0.048665 -0.186177 -0.590358 0.0737813 0.0911175 -0.131831 -0.27393 -0.295473 0.286139 -0.475277 0.067039 0.322337 -0.0722035 -0.270219 -0.197268 0.216231 0.0479843 -0.118024 0.00954041 -0.0022239 -0.0536836 -0.256551 0.171556 -0.0701401 0.149142 -0.0526092 -0.0397856 -0.324016 0.0490125 0.125763 -0.329033 0.0911979 0.0757572 -0.0517771 -0.00955142 0.205347 -0.000309624 -0.135417 
object -0.160399 -0.202483 -0.0860407 0.185933 0.0676541 0.0678458 0.254829 0.00111178 0.0650007 -0.0471991 -0.00497902 -0.0561215 0.00482546 -0.247111 -0.037867 -0.118594 -0.0793521 0.15748 -0.246861 -0.194126 -0.119257 0.0124142 -0.09883 0.0346031 -0.108337 0.0215125 0.093389 -0.146831 -0.1855 0.110171 -0.00208597 0.213037 0.103328 0.229896 0.0817195 -0.0312817 -0.151408 0.0118654 -0.174095 -0.0015452 0.0351036 0.112937 0.145397 -0.0873497 -0.00317651 0.098371 0.108329 0.0368558 0.0367663 0.00713058 -0.0791881 -0.0857232 0.0703646 -0.218994 -0.233765 -0.15729 0.192967 0.0681253 -0.165911 0.000173623 0.149706 -0.427622 0.0343712 0.267223 0.057314 0.0630889 -0.0876952 0.0863534 -0.0500094 -0.0540997 0.051488 -0.147606 -0.00801011 0.0749716 -0.0635106 0.0485869 -0.181927 0.114968 0.208354 0.203764 -0.0945534 -0.0886048 0.00926906 -0.130683 -0.0391713 -0.0798739 0.0614466 0.0216771 -0.0662921 -0.0949357 0.0765607 -0.0473861 -0.0129702 -0.0313766 -0.0563967 -0.00891535 0.0266688 0.0681484 0.119334 0.0163654 0.0594471 -0.0269533 -0.0195839 0.117452 -0.0160601 0.148839 0.223683 -0.0905273 0.0353653 0.0878822 0.026314 -0.0561292 -0.0942191 -0.0882873 -0.00802789 -0.00282595 -0.0193055 -0.114312 0.100709 0.0140443 0.147684 0.0399184 0.0752675 0.111073 -0.0726989 0.100051 -0.138166 -0.013702 -0.065842 -0.0524036 0.125166 -0.0279558 -0.21848 0.0904737 -0.0518422 0.104749 0.154372 -0.00740979 0.019431 0.0463624 -0.0187411 -0.00211782 -0.0852759 0.204926 -0.221256 -0.129929 0.105754 0.338879 0.00451254 0.177758 0.157628 0.0871869 0.0529129 0.106787 -0.38387 -0.0891871 0.0390468 0.0461271 0.0315871 0.120312 0.0214081 -0.087826 -0.0983748 0.228151 0.0954883 0.153179 0.0532769 -0.0505439 -0.0245297 0.164778 -0.0951983 0.0636348 0.0381933 0.014537 0.0583384 0.00650747 0.0295636 0.059609 -0.119061 0.137132 0.100418 0.165882 0.205262 0.0459569 0.152175 -0.0758729 0.0870429 0.0413972 -0.0627744 0.0238547 0.298855 -0.10014 -0.00921562 -0.047831 0.0647176 -0.0494899 0.203504 0.0660154 -0.211937 0.00601646 0.106449 0.0313928 -0.015166 -0.129845 0.0421572 0.279422 0.226508 0.096529 0.025788 0.0513095 -0.0659229 0.126557 0.0418803 0.0200476 -0.00372061 -0.0166666 -0.0925191 0.0422678 -0.077874 -0.100624 0.0514551 -0.118578 0.184148 0.146607 0.0491669 -0.0503879 -0.0308353 -0.310114 0.123764 0.0954695 -0.0640898 -0.11046 -0.0336045 -0.0282402 -0.0346055 -0.105662 -0.0193924 0.035357 -0.0422352 0.0321127 0.133129 0.041747 0.0263057 -0.0311514 -0.0567762 0.116151 -0.132173 0.202665 -0.0375174 0.0231155 -0.0299791 -0.096443 0.0336931 0.111917 0.230135 -0.0585294 
attitude 0.0239571 0.193044 0.0823149 0.051387 -0.0651783 -0.0687985 0.0856096 -0.157785 -0.132746 0.0435518 0.0609759 0.0144958 0.409923 -0.231203 -0.0701398 -0.052567 0.0832774 -0.0389969 0.0903725 -0.183355 -0.147044 -0.144587 0.0309054 0.0647857 0.161599 -0.149357 0.0587929 -0.0861315 0.194299 -0.12409 -0.0492472 -0.0871451 -0.15349 0.0654049 0.0662599 0.0773039 0.00517425 0.22413 -0.204387 -0.181787 -0.00489047 -0.0197748 -0.112864 -0.285855 0.196958 -0.0167713 -0.0310496 0.109932 0.0117388 -0.227525 -0.227511 -0.0901885 0.192438 -0.0977456 0.0177997 0.189638 -0.12933 -0.0263162 -0.0660736 -0.120603 0.0944533 -0.310781 0.0726567 0.161904 -0.0283801 0.046226 -0.0744578 -0.252864 -0.20071 0.0383915 -0.0905382 -0.0538768 0.0964232 0.114378 0.225373 0.152307 0.112281 0.0518435 0.148897 -0.104657 -0.279557 -0.12627 -0.0280366 -0.378968 0.00400215 -0.231471 0.0940955 0.127862 0.0770506 0.0925656 0.0280454 0.163586 0.115743 -0.0541554 0.292647 0.0110756 -0.0358395 0.293398 0.18097 0.0394698 -0.145795 -0.0390832 0.299748 0.0701209 -0.107761 0.170834 0.0356052 0.204193 0.0223297 -0.0562989 0.0251249 0.0248659 0.082225 -0.0538566 0.0364899 -0.0853591 0.044987 -0.220726 -0.135996 -0.0377918 0.182364 0.0575074 0.0665596 0.213339 0.0225451 0.119496 -0.0777735 0.138264 0.140674 0.183058 0.0065461 -0.0259998 -0.0944698 -0.00718715 0.0419259 0.184274 0.148598 -0.00961346 0.0294707 0.103792 0.00927246 -0.0328778 -0.205063 0.0291261 -0.0234779 -0.091499 0.0192947 0.164968 -0.00580968 0.0415392 -0.0191568 0.0337416 0.0385384 -0.175984 -0.145017 -0.035821 -0.0603998 -0.0128057 -0.192792 0.072664 0.0836784 0.199743 0.0559002 0.102012 -0.125892 -0.00610317 -0.134764 -0.0418644 0.0633509 0.0322069 0.00733397 0.150709 0.110515 -0.192058 0.109978 -0.0437508 -0.0133212 0.014425 -0.016943 0.170569 0.0329888 0.0373909 0.089153 0.141218 0.00728841 0.0126335 0.364551 0.0204998 -0.0267709 -0.232189 0.0451777 0.186148 0.055764 0.121824 -0.225181 -0.227457 -0.111401 0.134205 -0.110193 0.0957291 0.00925447 -0.0774593 0.102656 0.0186638 0.150775 0.0717634 0.024254 0.18039 0.0506085 0.0923163 0.0318448 -0.0379317 0.110422 0.111496 0.175585 0.1995 0.0520104 0.0186155 0.00559125 -0.070264 0.0455429 0.00420679 -0.0107266 -0.123697 0.0894571 0.00981541 -0.0604225 -0.117514 0.0714782 0.0544407 0.0191334 0.049177 -0.150716 -0.000219207 0.148784 -0.214478 -0.0712242 0.0618278 -0.0465615 -0.0582045 -0.0350597 -0.287871 0.0884598 -0.0577375 -0.00426531 0.117134 0.0810032 0.163513 -0.00204819 0.10643 -0.0239123 0.0342788 -0.157625 0.0781207 0.194018 0.0409619 
treatment -0.190918 -0.00484406 -0.0199907 -0.278937 -0.205953 0.107095 -0.268903 0.100531 0.0810763 0.201541 -0.118447 0.133997 0.0847702 -0.114515 -0.00113015 0.0133557 0.0730563 -0.114422 -0.0193841 0.16724 -0.149871 0.0321061 -0.137021 0.0657817 0.158718 -0.0853608 0.145394 -0.0746015 -0.0036347 0.0794638 0.184743 0.119433 0.235485 0.1447 -0.0810602 -0.132132 0.0562697 0.0665521 0.15296 0.198578 0.0302875 0.182446 -0.24978 -0.0162496 -0.0241241 0.164382 0.0612589 -0.0433192 0.0144135 0.0772446 -0.139475 0.0514735 0.15853 0.134213 -0.210393 0.306071 0.125365 0.026524 -0.120698 -0.104465 0.196406 -0.0564006 -0.0109935 -0.0407603 -0.0268789 -0.0466611 -0.0939282 0.0338662 -0.122966 -0.125467 -0.405789 -0.233411 0.085939 -0.0492423 0.110229 0.157255 0.00885825 -0.211345 -0.0444024 0.065241 0.0818274 -0.180974 -0.0584349 -0.134133 -0.0754148 -0.12699 0.114408 -0.205273 -0.164347 -0.135392 0.0652983 0.136365 0.0975866 -0.132041 -0.109173 0.226631 -0.00878972 0.0437241 0.0392056 0.106715 -0.315404 0.0711398 -0.0148165 -0.0323472 0.0359557 -0.214051 0.0624265 0.0933975 0.246635 0.0850398 -0.0915894 0.0891625 0.172855 -0.123599 -0.0283645 -0.0363536 -0.0894353 0.102953 -0.266074 0.0239408 0.0808389 0.262107 -0.0426103 0.413985 0.151656 -0.240789 0.179368 0.232927 0.165824 0.0385365 0.0164643 0.0928516 -0.157943 -0.154436 -0.00119616 0.0311793 0.0867026 0.0159665 0.00275928 -0.0913377 -0.0451374 0.286498 0.0356129 0.232899 -0.0361301 -0.0930644 0.0307448 -0.220097 0.0740869 0.0611018 -0.0483731 -0.0724728 -0.0437953 0.136038 0.158633 0.0591537 0.0498286 0.109629 0.0923814 0.0693487 0.0561712 -0.0163027 -0.0661991 0.30438 -0.203795 0.228805 0.0277862 0.0142287 0.127606 0.0726189 0.143907 0.154634 0.185097 -0.0314536 0.301197 -0.25126 -0.0771596 0.0107242 -0.450133 -0.186969 0.187254 0.0142127 0.365151 0.288486 0.257628 -0.130315 -0.0831987 0.100583 0.000996757 -0.190984 0.0818292 -0.240098 0.161503 0.224868 0.108432 -0.176119 -0.0217084 0.0611967 0.0442153 0.0527623 0.176391 -0.164537 0.221154 -0.0301751 0.272819 -0.0767236 -0.240518 0.120305 0.0388699 -0.0406317 0.00190358 -0.0981695 -0.252988 -0.0058178 -0.0645833 0.0257789 0.0269031 -0.10022 0.164345 -0.414117 -0.150488 0.105771 -0.19478 0.139208 -0.215779 -0.0872639 0.0231633 0.0331686 -0.0149588 -0.117852 -0.186625 -0.0966765 -0.0654137 -0.160333 0.0388075 0.164644 0.120648 -0.0674182 -0.0341496 -0.0631478 0.163332 -0.174941 -0.204006 0.125709 -0.12504 0.212571 0.0833656 -0.0307037 0.100038 0.176669 -0.0308687 0.216616 0.142696 -0.0435578 -0.211362 0.0544509 
flight -0.0439502 -0.1625 0.179578 0.162069 0.00980202 -0.0373991 0.0714022 -0.200521 -0.303555 0.0290556 0.052661 -0.07455 -0.0816922 0.0954074 0.27642 0.270473 0.0558185 0.291859 -0.168672 -0.232249 0.151072 -0.0841416 -0.150989 -0.259515 -0.10671 -0.155468 -0.117643 0.190957 0.0988534 0.073095 -0.271758 0.0540667 0.0815894 0.193641 0.0613328 -0.135717 -0.101787 0.130985 -0.244373 -0.0647429 0.287822 -0.106104 -0.12134 0.143231 -0.00333994 -0.0730404 0.0178237 -0.296577 0.104815 -0.237318 0.282277 -0.261798 0.0118754 -0.262282 0.344367 0.0811986 -0.00774061 -0.0607314 0.134677 -0.170915 0.241513 -0.321957 0.239963 0.0753486 0.184372 0.270821 -0.176803 0.105109 0.0685453 0.00959915 0.256648 -0.100518 0.237986 0.0638631 0.132138 0.160604 -0.220701 0.0449696 -0.00910396 0.0968387 -0.379621 -0.0744608 0.0222141 -0.162689 -0.0244481 -0.0803569 -0.232358 0.214023 0.0310182 0.105183 0.166198 -0.104286 -0.209967 0.0300354 -0.218317 -0.404725 0.214386 0.179989 -0.289836 -0.247129 -0.0293554 -0.00723717 -0.0203424 0.255508 -0.201966 0.117871 -0.11263 -0.0169527 -0.396872 -0.24348 -0.190899 -0.0397134 0.0142292 -0.266229 0.117667 -0.0812529 -0.53815 0.303287 -0.0822998 -0.152432 0.265131 -0.0314465 -0.114284 0.000866023 -0.118879 -0.264707 -0.0238293 0.0437618 -0.185702 -0.018123 -0.0288635 -0.0530273 -0.0338451 -0.0526079 -0.225209 0.148979 -0.0587329 0.0275105 -0.109008 0.164177 0.109913 0.0428626 0.0840558 0.211072 0.178669 -0.0440165 -0.00598626 0.0034435 -0.0978102 -0.157864 0.196452 -0.104854 0.262412 0.309983 0.0149974 0.384175 0.0598799 0.245559 0.131031 0.209895 -0.0956357 0.0144651 -0.0238044 0.0487077 0.195428 -0.0503598 -0.0411633 -0.11396 -0.0775109 0.0442443 0.211795 0.194057 0.0842082 -0.200849 -0.272781 -0.247314 -0.210832 0.031615 -0.224548 -0.173626 -0.0190674 -0.0235869 -0.0788276 0.438437 0.121101 -0.29387 -0.254859 -0.0158564 -0.210543 0.048522 0.403368 0.163405 0.0609642 -0.00395399 -0.0935389 -0.0111588 0.217865 0.227565 0.273139 -0.0884548 0.00666275 0.0471329 0.165605 0.149475 0.0886477 -0.147559 -0.297427 0.0101353 -0.0794732 -0.150616 -0.261601 -0.00802244 -0.395366 -0.080164 0.366869 0.0245475 0.224799 0.166127 -0.230336 -0.30649 -0.0936607 -0.0455729 0.0169459 0.1125 0.271253 -0.291469 -0.24094 -0.297624 -0.141664 0.208861 -0.026918 -0.175707 -0.0982313 0.0907626 -0.175918 -0.18517 -0.0238196 -0.275796 0.0764374 -0.301577 0.214358 -0.248038 -0.293614 -0.610744 -0.0289023 0.165979 -0.0150235 -0.131554 0.023607 0.130947 -0.0314441 0.0154333 0.100712 -0.325291 0.13405 -0.0214259 
forest -0.19201 -0.0875541 -0.188172 0.0792199 0.098754 0.0564479 0.0636199 -0.148809 -0.220903 -0.135174 -0.208101 0.112547 -0.0625091 -0.277105 0.00815374 0.109187 0.0559555 -0.111174 -0.0771827 -0.00947604 -0.266064 0.116214 0.24594 0.0875143 0.191066 -0.167859 -0.0181608 -0.153031 -0.0461751 0.194937 -0.118259 0.277392 0.00594358 -0.178788 -0.0289108 0.219035 0.126357 0.171854 0.0672116 0.0048607 -0.0360874 0.000562295 -0.20232 0.00573532 -0.16258 0.290696 0.0308705 0.13597 0.0755413 0.0799562 -0.0597334 0.236954 -0.013903 -0.179061 -0.459284 0.0460103 -0.081573 0.197772 -0.249319 -0.189548 0.0376645 -0.00686668 0.0328669 0.178452 -0.0140927 0.00507245 -0.233017 0.24015 0.0814538 -0.0324593 -0.186414 -0.162458 0.284529 -0.136622 -0.0483052 0.135996 -0.173858 0.31046 0.0465095 0.00119385 0.257942 0.281727 0.134596 -0.125897 0.206529 -0.271094 -0.240153 -0.257525 0.139239 -0.035829 0.00665086 -0.0694927 -0.0800216 -0.045927 0.0710443 -0.0517345 0.107622 0.0490414 0.0592577 0.393816 -0.0336563 -0.0114112 -0.0635547 -0.112097 -0.232286 0.00174676 -0.180675 0.179396 0.197211 0.052783 -0.376386 -0.000430196 -0.0762812 0.170733 -0.32037 0.129411 -0.154415 0.324042 -0.0820742 0.0206781 0.248711 -0.189148 -0.40425 -0.25314 -0.123909 0.0773165 0.0998323 0.221754 -0.00330268 0.0527737 0.208311 -0.00727141 -0.185128 0.0697955 -0.341777 -0.00516074 -0.243602 0.141946 0.194396 0.107049 -0.0548637 -0.0301588 -0.194215 -0.373201 0.413583 -0.036246 -0.129662 -0.0793872 -0.0619066 -0.0877681 0.197052 -0.177884 -0.0442781 -0.375886 -0.107266 -0.299791 -0.278667 0.276471 -0.143832 0.011001 -0.347707 0.228698 0.0424507 -0.260486 0.0926184 -0.245169 0.0539493 -0.0138947 -0.262488 0.0588947 -0.00285389 0.131625 0.138928 0.0969244 -0.0546922 -0.314171 0.136892 -0.105948 0.143478 0.0900841 -0.0634978 0.0455271 -0.138292 -0.117681 0.297416 0.127546 0.106075 0.46194 -0.216162 0.144837 0.21305 0.239534 0.266696 0.0196986 -0.0462346 0.251484 -0.0354638 -0.066661 0.109723 0.0724004 -0.0535077 -0.160808 0.0361412 -0.185792 0.286598 -0.256723 -0.131956 0.273498 -0.12429 -0.0488389 0.0603874 0.106723 0.169639 0.170344 0.0204824 -0.135876 0.00620428 -0.0142321 -0.118185 0.0863427 -0.0433509 0.0505313 0.229624 0.411834 -0.235622 0.0584694 -0.117762 -0.286623 0.0602182 0.202488 0.0492604 0.0556817 0.0723375 0.417068 -0.120145 0.0980436 -0.167133 -0.559155 0.252403 -0.220432 -0.0257778 0.208205 0.0383676 -0.0897115 -0.302003 -0.148021 0.141946 -0.020491 -0.179402 -0.17146 -0.0712927 -0.00113423 0.20961 -0.285457 0.134406 0.203199 
abuse 0.252973 -0.201956 -0.184563 -0.103779 0.0901558 -0.0935776 -0.103225 -0.243448 -0.0829499 0.0820204 0.193374 0.222884 0.177729 -0.222251 -0.168533 0.0335448 -0.00679696 0.0833457 -0.249646 -0.170776 -0.286641 0.120939 -0.125796 -0.21171 -0.0837781 0.013881 -0.0412381 -0.364009 0.353827 -0.223885 -0.0721362 0.201607 0.0825684 0.0692614 0.0746528 -0.132664 0.177143 0.0197171 -0.0394589 -0.0941274 -0.116322 0.247724 -0.226172 0.00678587 0.130735 0.202634 0.122934 -0.259027 0.226589 0.218466 -0.395163 0.070855 0.0989336 0.100015 -0.0302328 0.433352 0.0246261 -0.215439 0.363255 -0.205222 0.373044 -0.240119 -0.0432213 -0.019114 0.191611 -0.0938525 0.269828 -0.0345095 -0.0432529 0.164439 -0.033592 -0.314804 -0.132466 -0.0311183 0.391591 -0.00301911 -0.0365443 -0.114332 -0.230598 0.218538 0.242573 -0.0317165 -0.0980637 -0.354793 0.191911 0.118466 0.0308885 0.281418 -0.140044 0.164784 0.0421832 -0.168519 -0.137841 0.172767 0.114448 -0.119974 0.141309 0.0211176 0.0169026 -0.271427 -0.154563 0.0957952 -0.134454 -0.0953427 -0.239701 -0.152871 0.0323787 0.109816 0.686235 0.368631 0.130703 0.349617 -0.180921 -0.165585 -0.0985558 0.0547454 -0.0303135 -0.203008 -0.0706743 0.00687723 -0.058701 -0.126988 0.0530776 0.304892 -0.143391 0.252126 0.000607318 0.306637 -0.264008 -0.357751 -0.00476249 -0.111046 -0.566565 0.00951689 0.352899 -0.0787037 -0.103148 0.12997 -0.0274795 0.264448 0.23454 0.0376035 -0.524766 0.172808 0.15573 -0.092301 0.209628 -0.162022 0.0280671 0.254191 0.0517184 0.11037 0.315803 -0.0527462 0.000106193 0.0502755 -0.00274079 0.109396 -0.363655 0.199888 -0.0656284 -0.00327955 0.265866 0.0259966 -0.183071 0.316965 0.0248007 0.0602077 0.319279 -0.0267704 -0.0396098 -0.0520088 -0.136655 0.189132 0.00451981 -0.295469 0.118396 0.17903 -0.130057 -0.200398 0.0640311 -0.103531 0.256173 0.0118502 0.33986 -0.0740026 0.0827285 0.0194176 0.25034 -0.101699 0.00267369 -0.21808 0.0741224 0.0804546 0.0950836 -0.128735 0.0459082 0.248509 0.126398 -0.0285117 0.129245 0.0650605 0.150242 0.199816 0.217959 0.0613406 -0.104312 0.11324 0.225733 -0.388625 0.13739 0.26043 -0.176884 0.106526 0.0968709 -0.120569 0.16439 0.0435349 0.0233912 -0.0641349 -0.251141 -0.108858 -0.252275 0.0984971 -0.450029 -0.157792 0.403719 -0.194367 -0.146587 0.303591 -0.137447 0.0178713 -0.308757 0.0767721 0.0723008 -0.0954213 -0.00580997 -0.0889351 0.122416 -0.0274845 -0.017527 -0.065581 -0.0446891 0.203895 0.0271663 -0.00149126 -0.0437527 -0.0466489 0.164104 0.113864 -0.280217 0.342525 -0.0283042 0.234213 0.217702 0.110306 
criterion 0.088093 0.274201 -0.0513075 0.147428 -0.0421177 0.0984977 -0.0320233 0.24901 0.0805264 0.128483 -0.15654 0.148804 0.0828751 -0.139251 -0.23834 -0.247673 0.100033 -0.0759268 0.0258462 0.054366 -0.0888104 -0.0781239 0.0660504 -0.0177163 -0.00220047 0.175947 0.015088 -0.039248 -0.177974 0.0326673 -0.180536 0.101567 -0.121537 0.0691035 -0.150261 -0.013978 -0.0947254 -0.0224968 -0.0500586 0.124758 0.0600049 0.124234 0.0375816 0.0717936 -0.0208188 -0.231649 -0.00524334 0.260162 0.126646 0.105497 -0.284762 -0.0801322 0.0551582 -0.00916309 0.0577055 -0.192955 0.182227 0.00943404 0.0141721 0.113823 -0.0155002 -0.303155 0.0776834 0.295958 -0.123553 -0.153579 -0.0961857 -0.233067 -0.18934 0.136432 -0.0211872 0.175988 -0.248536 0.0643173 0.0456627 0.093237 0.0338355 -0.0250071 -0.1336 0.0847545 -0.156887 -0.214946 0.091017 -0.203151 0.0425414 -0.150437 -0.0206034 0.0674862 -0.193538 0.0415756 0.0618965 -0.253745 0.0124643 -0.213269 0.0246617 0.0482688 -0.0924263 -0.11369 0.068214 0.221276 0.0534146 0.182243 0.159645 0.0894958 -0.0714438 0.178387 0.163519 0.202885 -0.0261555 -0.175008 -0.00301554 -0.0130059 0.120216 0.011902 -0.0270695 -0.0333132 -0.180709 0.003995 -0.0423606 0.0196458 -0.042527 0.00209278 -0.065784 0.182468 -0.0743113 0.0332078 -0.126073 0.0212948 -0.106092 0.112362 -0.072508 0.0710448 -0.105113 0.114095 -0.0190171 0.246082 -0.125262 -0.107089 0.164049 0.0488436 0.00177787 -0.118984 0.0356643 0.0276873 -0.226153 -0.116593 -0.0510449 0.240875 0.0691598 0.225346 -0.18348 -0.193959 -0.0555883 -0.0896674 0.159806 -0.0222156 -0.0968221 -0.1879 -0.289171 0.204587 -0.150587 0.138331 -0.0457036 0.17924 0.027002 0.202358 -0.0222009 0.0210213 0.119462 0.0849611 0.197202 -0.194144 0.0221439 0.112106 -0.0671109 0.238353 -0.182862 0.055418 -0.399713 0.155075 -0.0755215 0.154086 -0.0151528 0.0430343 0.269659 -0.0398602 -0.268139 -0.125037 -0.132791 -0.154562 0.159659 -0.1236 0.245489 -0.0775699 -0.0988595 -0.0946216 -0.211293 -0.0910207 0.155099 0.0967475 0.0783682 -0.20405 0.198831 -0.290723 0.197829 -0.174905 -0.00453628 0.0531811 -0.163891 -0.2892 -0.209962 0.134336 0.200409 -0.0109189 0.0181432 0.179228 -0.138493 0.318946 -0.0681763 -0.00244529 0.0554114 0.0107312 0.134754 0.170949 0.0465672 0.0386223 -0.118427 0.0626452 -0.000784166 0.196834 0.0488874 -0.118896 -0.370484 -0.110922 -0.206654 -0.168953 0.0875706 0.165457 -0.0149888 -0.0485005 0.22868 0.0516088 0.0627346 0.130261 -0.169923 0.0209972 -0.145625 0.143374 -0.0803294 0.00134047 0.111219 0.190765 -0.151165 -0.0129359 -0.106871 0.00690173 
sea -0.457962 0.0732474 0.0810562 0.237791 0.0733202 -0.0212002 -0.0709183 -0.170651 -0.13581 0.215051 0.0236961 0.262717 -0.0639778 -0.00627138 -0.0848925 0.32614 -0.0739633 -0.00106631 0.114377 0.130845 0.319029 -0.0841688 -0.0137299 -0.0819581 -0.026541 -0.00661511 0.098954 -0.158443 -0.168533 -0.00761872 0.125805 0.0971855 -0.529822 0.0695288 0.11778 0.0374049 -0.0336384 0.202513 0.0789452 -0.161741 0.16687 0.0229902 0.0239259 -0.241523 0.195165 0.114679 0.0417203 -0.182367 0.0778519 0.00093183 -0.0521411 -0.164436 0.185118 -0.0501749 -0.265959 0.102224 0.162597 -0.176929 -0.135281 -0.122729 -0.0498759 -0.0169062 0.129134 0.19838 0.282095 -0.32942 0.0769814 0.0964111 -0.0429427 0.0498117 -0.0940299 -0.18866 0.250751 -0.00503134 0.0381457 0.226349 -0.00736643 0.241845 -0.00125581 0.0529289 -0.24615 -0.126205 0.39217 0.220857 0.172133 -0.115357 -0.023406 -0.00420597 -0.0770021 -0.238948 0.0630262 0.131058 -0.17133 -0.132923 -0.176515 0.0906181 0.0744319 0.167077 0.264934 0.0443383 -0.133583 0.0597762 -0.422282 0.0256807 -0.317819 -0.235914 0.200904 0.0670661 -0.0227382 0.0383698 -0.318925 0.0316179 -0.0445023 0.120681 0.0586371 -0.180211 -0.129891 0.0435994 0.0112231 -0.142366 -0.00394447 -0.115438 0.306145 -0.0529947 0.209531 -0.284489 -0.211754 -0.188912 0.252013 0.109882 0.026128 0.344969 -0.287173 0.156355 -0.0765067 0.208104 0.181522 -0.284223 0.192992 0.21102 0.28519 0.0798423 0.188776 -0.0441738 0.054791 -0.329481 -0.0905621 0.0230099 0.0790441 -0.333734 -0.0583437 -0.0801016 0.106074 0.200241 -0.202405 -0.275235 -0.282573 0.28262 0.128336 -0.128796 -0.089601 0.0921602 -0.0697813 0.102804 0.267649 -0.245658 0.123089 -0.157427 0.0162985 0.13228 -0.118119 0.143962 0.146379 -0.122937 -0.0789185 -0.0459741 -0.049287 0.0336224 -0.109204 -0.039072 -0.0122112 -0.0747107 0.079378 -0.0661431 0.0510165 0.0346146 0.127992 0.0831828 0.3418 0.297884 0.0620576 -0.104499 -0.236885 -0.268145 -0.0544635 0.0410718 0.375814 0.334763 0.00392388 -0.0540648 0.0662913 0.184974 -0.307568 0.0417719 -0.0416001 -0.197375 -0.0107513 -0.0789032 0.0738945 -0.15063 -0.0630901 -0.0380741 -0.0752028 -0.0603708 0.00703745 0.459165 -0.11429 -0.0917481 -0.31136 -0.151664 -0.141269 -0.0915768 -0.0758024 0.232649 -0.0122912 0.0516819 -0.193798 -0.313585 -0.171577 0.138866 0.354666 0.0871458 0.0353035 -0.106261 0.307158 -0.06729 0.374913 -0.0503531 0.163785 -0.117289 0.0758866 0.315364 -0.216922 -0.0451959 0.100769 -0.188284 0.181253 0.0336754 0.270809 -0.13908 0.0287816 -0.0736209 0.350675 0.0278557 0.193219 0.148971 
dollar -0.00830962 -0.153722 0.0581026 -0.125293 -0.410474 -0.230193 -0.0832628 0.103691 -0.220595 -0.0111791 0.34786 0.0774652 0.219806 -0.477242 0.0190087 0.104727 0.106093 0.12065 0.174349 0.136288 -0.204407 -0.0912397 0.135854 0.373541 0.0943841 -0.223791 -0.175319 -0.371262 0.0224438 -0.0895006 -0.00439683 -0.162628 -0.0016769 0.279291 0.00362561 0.0994344 0.103621 0.0937894 -0.157835 0.0779971 0.181038 0.255627 -0.0798199 -0.257369 -0.108336 -0.0559868 -0.125517 -0.0461092 0.0815099 0.173592 0.199032 -0.30724 -0.231354 -0.266701 0.270731 -0.0711315 0.0880666 0.132946 -0.166105 0.116613 0.032826 0.0790791 0.0176218 -0.144001 -0.306271 0.298622 0.121097 0.0323595 -0.0132118 -0.364213 0.073634 -0.295857 0.062651 -0.0478862 -0.293708 0.455786 0.433599 0.139512 0.314989 0.181281 -0.266074 0.0992342 -0.254295 0.348964 0.0271541 0.202707 0.115863 0.463897 0.0278452 -0.0728287 -0.388306 0.064732 -0.243154 -0.303357 0.00584552 -0.0946466 0.0325003 0.0377896 0.0428758 -0.0382105 0.16391 -0.115365 0.104801 0.00246106 -0.00245559 -0.231241 0.265436 -0.428923 0.0121734 0.0326433 -0.135094 0.0527503 0.136449 -0.364074 -0.0333265 -0.00306269 0.0437854 0.146506 -0.131229 -0.252562 -0.0589894 0.135869 -0.33868 0.146304 -0.183937 -0.322026 0.097786 0.369295 0.0245812 0.16143 0.0171307 0.00397438 -0.31385 -0.0182085 -0.0557477 0.0825739 0.154428 0.00683206 -0.358912 0.264076 0.107735 0.410691 -0.175417 -0.603234 -0.227873 0.0195474 0.00719516 0.285156 0.0464082 -0.42176 0.161945 -0.155504 -0.0462178 0.0495174 0.319155 -0.0769006 -0.159205 -0.222322 -0.15736 0.0300497 0.149109 0.409942 0.38013 -0.0250715 -0.115019 -0.143829 0.0408232 -0.218327 0.0554138 0.471898 -0.200316 0.193667 -0.416987 0.565397 0.110628 0.402891 -0.014582 0.205826 -0.0622011 -0.00040265 -0.194566 0.118496 0.166038 -0.0817901 -0.124267 -0.202301 0.160761 -0.0907764 0.0471991 -0.210771 -0.004588 0.237061 0.176796 -0.280655 -0.332809 -0.293139 -0.233496 -0.259312 0.130376 -0.00902258 0.100652 0.23111 0.0611865 0.0592332 -0.390998 -0.169683 -0.0440675 0.511144 0.157504 -0.158463 0.186276 -0.0530513 -0.113218 0.284467 -0.0174619 0.0878748 -0.11307 0.122743 -0.171456 -0.221357 0.0539625 -0.299543 -0.299388 0.120015 -0.10709 -0.091042 0.038809 0.0721389 0.237825 0.0608781 -0.174236 -0.0995763 0.175212 -0.0129057 -0.0826921 -0.321216 0.050285 0.18886 -0.012904 -0.376848 -0.0244756 -0.175075 -0.13267 0.000672745 0.0731969 -0.0552843 0.337652 -0.228055 -0.0638396 -0.351999 0.179114 -0.400262 0.329603 -0.167418 0.121033 -0.0409737 
example -0.128902 0.0093468 -0.0321414 -0.00452136 0.00939166 -0.0210511 0.0727554 0.0342328 -0.0409524 -0.00374364 0.0119309 0.0624366 0.113278 -0.0725833 -0.000918368 -0.0720185 0.00171791 -0.0139752 -0.0693241 0.111011 -0.0600404 -0.00534284 0.0450623 0.0128081 0.038196 -0.0222673 -0.0122459 -0.0624602 0.153462 -0.0316393 -0.171443 0.0465502 0.00610508 -0.0580977 0.0735812 0.0542468 -0.0315633 0.0967215 -0.0287051 -0.0733493 -0.0524009 0.0438117 -0.098173 -0.0696232 0.0485503 0.0546904 0.115757 0.0813869 0.0103734 -0.0767858 -0.0239449 -0.118949 0.109345 -0.0548808 -0.0921191 0.0681059 0.0414348 -0.0170279 -0.0107893 0.0122387 0.226296 -0.0385895 0.0683016 0.100357 0.0219354 0.150335 -0.0308002 -0.0522279 -0.048111 -0.00395106 -0.0539718 0.0373048 0.00603709 0.0648087 0.0332488 0.0671733 0.0868176 -0.0037738 0.0555573 0.0612891 -0.0836222 -0.083251 0.073113 -0.0345095 0.0133193 -0.0553948 0.0447642 0.0376828 0.00941878 0.02397 0.00800806 -0.0287475 0.0907564 -0.0844373 0.0897954 -0.00677608 -0.0219192 -0.00737655 0.108697 0.0154602 0.0604506 0.0672029 0.0588826 0.0172019 -0.099677 0.030035 0.0424731 0.0310091 -0.00238934 0.0191511 -0.11036 -0.0660891 0.042411 0.0494136 0.00149354 -0.047718 0.0323784 -0.0564222 -0.027511 -0.00380374 0.064018 0.0696329 0.0968271 0.147536 -0.0234558 0.129131 0.0275476 0.0262792 0.0151899 0.0825922 0.0652234 0.0217955 -0.0592901 0.072984 -0.00604786 0.0369023 -0.012709 0.0345546 -0.111862 0.0439332 0.0240826 0.119659 0.141939 -0.00118603 -0.145883 -0.0860791 -0.197922 0.108018 -0.067952 -0.101345 0.164881 -0.0969902 0.0533423 -0.0319909 -0.0101748 -0.0632435 0.0371679 -0.0535009 -0.0215177 0.130299 0.0533081 0.0252912 -0.021178 0.0990148 -0.085353 -0.00606482 -0.0288052 -0.00897397 -0.0566222 -0.0156028 -0.0375279 0.0602681 0.0351689 -0.0623566 0.0967088 -0.00627782 -0.0834432 -0.0161974 -0.193727 -0.0203707 0.0255653 0.0944833 0.0334269 -0.0272131 0.0918221 -0.104826 -0.0024171 -0.0431553 0.0197537 -0.06243 0.178797 -0.0767942 0.00698693 -0.0248335 0.0114725 -0.0717348 -0.118837 0.0354888 0.0763167 0.139337 -0.0217488 -0.144039 0.169161 -0.0941655 0.0272121 0.0108991 0.0800398 -0.0170323 -0.00690437 -0.097675 0.00356717 0.0280275 -0.0298447 -0.0536201 0.0555273 -0.0121216 -0.120813 0.0290002 -0.0132556 0.0110262 -0.0279571 0.0744098 0.222815 0.114475 0.0249966 -0.122591 0.01416 -0.0960709 0.162103 0.0517027 -0.0820324 0.0567025 -0.044652 0.0118243 -0.0184002 -0.0810827 0.0544338 -0.0525618 -0.0543948 0.000907795 0.0334996 0.0254383 -0.036555 -0.014584 0.0131063 0.0299625 0.0220931 0.016451 0.053106 -0.0599134 -0.089177 0.0963859 0.107866 0.0993634 -0.00679246 0.0506301 
journal -0.371767 -0.342138 0.0713829 -0.197181 0.265394 0.0291597 -0.200624 0.359893 0.195537 -0.103179 0.127322 -0.197463 -0.30106 -0.399812 0.260746 0.0018909 0.465651 -0.0467904 -0.243126 0.0346368 -0.155623 -0.238881 -0.187604 0.08451 -0.163629 -0.137796 -0.0710257 -0.293061 -0.00650454 -0.161619 -0.0417129 -0.125902 0.193283 0.0252091 0.18763 -0.316865 -0.0371007 -0.0866631 -0.230462 0.267224 -0.11511 -0.199218 0.0577517 -0.0135915 0.289961 0.0748875 0.4513 -0.0129774 0.00218594 0.380021 0.0170945 0.31756 -0.303086 0.00252274 0.0667845 0.192618 0.00503418 -0.208358 0.0111073 0.381964 0.358416 -0.395372 0.189233 0.00369203 -0.0248474 0.176617 -0.25834 -0.107396 -0.0604792 0.142218 -0.0740242 -0.174688 -0.343606 0.271019 0.208384 0.186828 -0.0942392 -0.263656 0.042649 0.258645 -0.0675123 -0.354987 -0.0773116 -0.187888 0.0867073 -0.156959 0.254857 -0.162757 0.39595 -0.331439 0.285029 -0.00790568 -0.279822 -0.0559952 0.46069 -0.00740346 -0.434648 -0.268159 0.156111 0.066131 -0.30617 -0.0536749 0.339399 0.0832042 0.036251 -0.0768928 0.18394 -0.00882663 0.272028 -0.0243273 0.315619 -0.0575657 -0.178917 0.0264435 -0.13047 -0.476242 -0.0308312 -0.126924 0.110685 0.366815 0.268857 -0.23355 0.0676244 -0.0708958 0.12592 0.00988116 -0.180921 -0.132355 0.0630006 0.177735 -0.0426157 0.405043 -0.204563 -0.2715 -0.0732873 -0.162804 0.638093 -0.0605302 -0.201855 0.134483 0.224624 -0.133742 0.101415 0.00547236 -0.048753 -0.0713506 -0.181931 -0.217319 0.163374 -0.0619881 -0.301959 -0.0922058 -0.243933 -0.0914621 0.201224 0.0370113 0.136371 -0.037703 -0.116939 -0.135323 -0.0579424 -0.139877 -0.374414 -0.226246 -0.162123 -0.0732424 -0.156187 0.0297188 0.0445184 -0.349128 0.214689 0.0467257 -0.143977 0.168638 0.149738 -0.0149456 -0.44593 0.135455 -0.0354158 -0.223325 0.109187 0.398381 -0.0122618 -0.125395 0.019858 0.203214 0.0321132 -0.0373961 0.409647 0.270458 0.302431 0.0534498 -0.00442469 0.0657847 0.232781 0.523226 -0.301103 -0.226635 0.277235 -0.138882 -0.126489 -0.0664921 -0.100946 0.194287 0.162745 -0.312491 0.0223489 -0.138459 -0.276688 0.0565757 0.263296 -0.365776 0.33752 -0.134984 0.073679 0.0594898 0.0488625 -0.0518183 -0.505824 -0.0343025 -0.158258 0.325931 0.527348 0.291562 -0.0942045 -0.59828 0.451063 -0.0645326 0.156053 -0.0603548 0.0719075 0.222907 0.143933 0.0467306 -0.159664 -0.0616293 0.510638 0.112951 0.535315 -0.0207543 -0.247398 -0.326344 -0.137869 -0.119092 0.01066 0.525404 0.106721 0.17235 -0.0997908 0.14177 -0.00959644 -0.104367 0.0231958 -0.165027 -0.217626 -0.297861 
laundering 0.43846 0.154391 -0.0360737 -0.0721912 -0.122094 -0.271761 -0.121892 -0.0612624 -0.414358 -0.203361 0.417739 -0.514297 0.257423 0.0721745 0.176398 0.145758 -0.480956 -0.363069 -0.440826 -0.232789 0.514733 0.163986 0.444484 -0.0309025 -0.237315 -0.176587 0.64562 0.105153 0.634149 -0.487367 -0.0764692 0.150054 0.175448 0.527968 -0.0175215 -0.461024 0.00821368 -0.158375 -0.106511 0.111163 -0.754897 0.394784 0.255689 0.632609 -0.314538 0.147213 0.116468 -0.0411335 -0.482397 0.369918 -0.325477 0.430161 0.373015 0.145675 0.0753092 0.521139 0.35601 0.294134 -0.286075 -0.30151 0.195402 0.0575074 0.0764622 0.413804 0.166942 -0.29407 -0.214699 0.371312 -0.0712414 0.107092 0.146537 0.162328 -0.558719 -0.160687 -0.137575 0.475774 0.309695 0.504601 0.0673005 -0.632193 -0.312157 0.347644 -0.300781 -0.072941 0.830007 -0.568216 0.0717288 0.263162 -0.216969 -0.139403 -0.233441 0.113375 -0.130687 0.316008 -0.0188617 -0.50935 -0.568399 -0.239729 -0.376649 -0.368895 -0.115237 0.233888 -0.267578 -0.308565 -0.0446275 0.0599549 -0.364956 0.177436 0.177811 0.137781 0.26904 -0.0218194 -0.255699 -0.157028 -0.551694 -0.142886 -0.433604 -0.0928992 0.132771 0.142931 -0.0819127 -0.183177 0.331935 0.0555098 -0.164451 0.414602 0.301939 0.406895 0.16181 -0.329541 -0.0106844 -0.215945 -0.636435 0.46592 -0.0224958 0.157532 0.186121 0.243906 0.0677841 0.332855 0.543454 0.241687 0.259472 0.372865 0.222953 0.193709 0.386654 -0.307152 0.0546073 0.129927 0.265248 0.0542088 0.112868 0.223338 -0.216341 0.335172 -0.118362 0.31827 -0.138811 -0.0840184 0.0690294 -0.31594 0.296175 0.0119239 -0.229703 -0.261087 -0.347088 0.302097 0.182367 0.0217304 -0.22689 0.29846 -0.681656 0.140809 -0.183684 0.310902 0.0202332 -0.0505702 -0.065447 -0.0936203 -0.121339 0.0702986 0.504796 -0.0835307 -0.166528 -0.0969685 0.120037 -0.414605 -0.189861 -0.0865308 0.0742247 0.253123 -0.29835 -0.374677 0.0893837 0.228191 -0.219385 0.380357 -0.339682 0.528603 -0.167012 -0.176113 -0.0714068 -0.325363 0.544723 -0.522611 -0.25989 0.383362 0.0371957 -0.316505 0.390522 -0.240838 -0.0664117 0.320324 0.165185 -0.134359 0.0527271 -0.3323 0.107999 -0.0879514 0.198617 -0.262542 -0.0734319 0.174249 0.0180393 -0.389428 0.218122 -0.19145 0.00787385 -0.255666 -0.234837 -0.00805641 -0.553502 -0.304838 0.28564 0.0987097 -0.092349 0.36617 0.0286813 -0.463267 -0.415917 0.377809 0.351213 0.139092 0.0564891 0.312991 -0.183586 -0.304928 -0.133183 -0.18386 -0.434904 -0.204254 -0.0085677 -0.312795 -0.0248097 0.43795 
hotel -0.208758 0.307827 0.0298042 -0.0964472 -0.165375 -0.113224 0.289401 -0.0685419 -0.0692387 0.268087 0.419585 0.0630604 0.100975 -0.00579329 0.00368253 0.0117965 0.0465326 0.0255016 0.118262 0.0178599 0.0405684 -0.188564 -0.17529 -0.112386 -0.201163 -0.264511 0.145387 -0.205252 0.204911 -0.0162383 0.000466527 -0.0284893 0.101516 -0.175074 -0.246826 0.228017 -0.114466 0.309626 0.348989 0.100975 -0.184479 0.140514 -0.158014 0.10418 -0.125834 -0.0257013 -0.142665 0.0760221 0.157437 -0.0583757 -0.172301 -0.0459848 -0.183754 -0.202494 -0.142737 -0.0914709 0.210248 -0.20779 0.111508 -0.0409345 -0.0746022 -0.258667 0.0224156 0.190599 0.178145 0.14899 -0.162876 0.106505 0.424877 0.0401437 0.0976309 0.0341151 0.511345 -0.030515 -0.152138 0.413255 -0.176105 0.120653 0.0184075 -0.0716145 -0.0777849 -0.077247 0.113402 0.198801 -0.0867271 0.0492152 -0.156961 0.00369655 0.207171 -0.272289 0.168911 0.154974 -0.139702 -0.308787 -0.183594 0.139258 -0.0177506 -0.0108126 -0.0589884 -0.0539442 0.150074 -0.0553292 -0.322534 -0.0198184 -0.30426 -0.155062 -0.116301 0.339158 -0.122401 -0.15702 -0.0622707 -0.253835 0.072543 -0.253511 0.098388 0.0447866 -0.244242 -0.164473 -0.00418432 -0.171634 -0.161087 0.0451361 0.0392346 0.0890102 -0.166183 -0.194522 -0.171324 0.0196417 -0.277742 -0.002984 -0.21823 0.00292803 -0.091516 0.0545781 -0.278473 0.0276418 -0.0560893 0.209987 0.136149 0.0598052 0.043352 0.00233714 -0.161882 -0.0160303 0.353328 -0.167795 0.0835653 -0.249403 0.00877642 -0.0942856 -0.0425122 -0.128708 -0.226535 0.264975 -0.118402 -0.0375342 0.208419 -0.291218 0.0330693 0.152137 0.375457 0.128968 -0.154512 0.0582211 -0.134514 -0.214523 -0.147099 0.000527573 0.1166 -0.130872 0.142282 0.128513 0.146737 -0.010008 0.0132449 0.162402 0.00467692 0.357397 -0.0985251 -0.0309532 0.0279718 -0.0324874 0.0211855 0.380321 0.00456986 0.120467 0.0431678 -0.152449 -0.0535842 0.194442 -0.119355 -0.108644 -0.0704072 0.124607 0.0495486 0.123053 0.0992103 0.246241 0.063238 -0.0500844 -0.315137 0.103263 0.198587 -0.136083 -0.0140199 0.168761 0.0831212 -0.0528621 -0.0870717 0.131577 0.111294 -0.0923416 0.0625117 0.0766248 0.0850964 -0.209071 -0.0614341 0.0350293 0.248059 -0.0600618 -0.193961 0.351857 0.181125 0.0351591 0.0586537 -0.229598 0.0298827 -0.236978 0.229695 -0.0142055 -0.194851 -0.0304176 -0.0404435 0.295097 0.164174 -0.289369 0.0535697 -0.0705178 -0.139163 -0.233702 -0.19092 0.0164993 -0.11364 0.00402393 -0.0564145 -0.0497365 0.090299 0.170378 0.0311473 -0.0143579 -0.135394 0.0144204 0.291893 -0.0978942 0.00449305 0.134847 
term 0.215226 -0.022798 0.0683271 0.0952957 -0.0206155 0.0850288 0.267631 0.0484438 -0.103939 0.0632524 -0.166937 0.302783 -0.131637 -0.152365 0.0247015 -0.28058 -0.00896563 0.0654396 -0.0502486 0.154788 0.0398392 -0.160565 0.13831 0.015051 -0.121859 0.02039 0.331647 -0.367767 0.144841 -0.0060872 -0.0717455 -0.153896 0.0822266 -0.242886 0.31734 -0.215243 0.0648066 0.154692 0.0694422 0.0277354 -0.143856 0.129692 -0.123626 0.11111 -0.103773 -0.167412 -0.0862913 -0.232659 0.107592 -0.0112552 0.00996715 -0.0798522 0.0111804 0.401128 0.0467908 -0.0643515 -0.0889629 0.308107 0.147395 -0.306129 0.0632984 0.05121 0.0910036 -0.0492534 -0.0168591 -0.0478272 -0.390348 0.0498816 0.06005 -0.387195 -0.13512 -0.0526537 -0.0920461 -0.163771 0.335437 0.170044 0.0897333 0.109329 0.194953 0.326417 -0.366309 0.101689 -0.169642 -0.149914 0.00754075 -0.0966343 0.176374 -0.0424825 0.00898739 0.10574 0.0567307 0.118971 0.121342 -0.0701118 -0.0933877 -0.236566 0.0583401 -0.0808263 -0.0019236 0.021753 0.15089 -0.160255 -0.071515 -0.346227 -0.0291251 0.0541155 0.172936 0.232435 -0.0996021 -0.259829 0.182181 0.564803 -0.237062 -0.0590261 -0.304667 -0.0528743 0.0314752 -0.087781 0.0151075 0.0101483 -0.0747271 -0.406515 0.185795 0.0650021 0.0734099 0.0586748 0.1422 0.174173 -0.0164746 0.0543519 0.0329477 0.0590934 -0.219253 0.224404 -0.0356847 -0.230627 -0.0936273 -0.222272 0.129337 -0.159887 -0.0454643 0.0384849 -0.0392877 0.0242842 -0.0802937 -0.0133183 -0.175542 0.192526 -0.0628195 0.189218 0.153393 0.255193 -0.12354 0.0725055 0.100448 0.110837 -0.060714 0.112741 0.0260495 0.149974 -0.0186585 -0.126457 -0.157471 -0.0771279 -0.0871176 0.137584 -0.0629197 0.0259973 -0.0619176 0.0473147 -0.0874308 -0.009362 -0.218472 -0.20625 0.285947 0.230815 0.00780504 0.104 -0.0539379 0.00751952 -0.0440631 0.0201175 0.00127521 0.0690394 -0.24504 -0.219883 -0.0120631 -0.00924591 0.0590112 0.170485 0.0251159 -0.138278 0.114916 -0.172925 -0.112363 -0.0770864 -0.0647191 -0.23316 -0.00133661 0.185569 -0.19953 -0.447803 0.107913 -0.106816 -0.0731326 -0.230395 0.02878 0.20197 -0.0429926 -0.299196 -0.074349 -0.0587035 -0.167665 0.107556 -0.205952 0.0619701 -0.164107 -0.143116 0.138903 0.0484112 -0.149201 -0.0767395 0.088937 0.0200462 -0.0893501 0.0825369 -0.0268739 -0.0179375 0.0404842 0.225627 -0.245445 -0.165318 -0.207978 -0.349289 0.324074 -0.130436 0.219677 -0.0275984 -0.0687477 0.223154 0.219905 -0.142212 -0.0143394 -0.105846 -0.188253 0.0540883 0.00938711 -0.183359 0.0790882 0.0260106 0.0789267 0.0913085 0.291115 -0.227738 0.249983 0.13042 
listing -0.0321735 -0.0755991 -0.147871 -0.126083 -0.292091 0.0384768 0.0220469 0.343772 -0.218168 0.0370932 -0.134343 -0.232973 0.259771 0.0413563 -0.128144 -0.0470287 -0.0666847 0.0214202 -0.042608 0.24217 -0.0398077 -0.158412 0.0915026 -0.176751 0.0715824 -0.0895832 -0.0743646 0.0174825 -0.323331 0.0312989 0.00812251 0.0278919 0.0813727 -0.0253948 -0.187093 -0.411776 0.197084 -0.150792 0.0524823 0.00892639 -0.268772 -0.206886 -0.0519323 0.0517624 -0.134372 -0.260235 0.0440522 -0.031252 0.0194584 0.00943045 -0.277684 0.0658944 -0.211986 -0.0694213 -0.0439463 0.0394254 -0.0378311 -0.1368 -0.0101068 -0.161876 0.162889 -0.12109 0.0921862 0.201606 0.0961423 0.155282 0.141374 0.0809803 -0.101856 0.237152 -0.127996 -0.073384 -0.161247 -0.324518 0.0764873 0.404267 -0.0794373 -0.00497056 0.140212 -0.104622 -0.321343 -0.176328 0.0663146 0.420719 0.15816 0.174748 0.0053535 0.270073 -0.0941915 -0.11966 0.299101 0.0521085 0.115966 -0.0179947 -0.24443 -0.108769 0.125517 -0.217361 0.0876458 -0.357729 0.105838 0.0114889 -0.358362 0.161573 -0.134266 -0.0518559 -0.0457182 0.0919727 0.0135849 -0.0971407 -0.105369 -0.0533436 -0.013194 -0.00617789 -0.157571 -0.124047 0.177967 -0.141154 -0.0287422 0.245739 0.0553825 -0.201553 -0.00556715 0.14292 -0.126709 -0.228187 0.0906633 -0.148726 0.204048 0.0270537 0.215651 0.412938 0.0747913 -0.12758 -0.0536705 0.289134 0.300494 0.158256 0.140328 -0.122815 0.242152 0.0727887 -0.100379 -0.162071 0.251029 0.171721 -0.116853 0.0543462 0.0577683 -0.0382764 0.133207 0.00241544 0.165582 -0.162421 0.247598 -0.0539623 -0.173539 0.419619 0.191786 0.0579344 0.150414 -0.209957 0.273101 0.00995265 -0.0132191 -0.0418277 0.000691856 -0.242059 -0.141825 -0.405593 0.148026 -0.308563 0.111769 0.0926319 0.124834 0.0561785 -0.0960092 -0.0795919 0.0113338 -0.0643282 -0.0329646 0.195353 0.123837 0.143411 0.0713112 -0.0110709 -0.0582216 0.161906 0.0719151 -0.132827 0.05806 0.0852282 0.320242 -0.113216 0.168184 -0.0127464 -0.0892315 0.105889 -0.126445 -0.172094 0.174419 -0.215537 -0.116568 -0.259289 -0.0292738 0.0657345 -0.0363536 -0.107235 -0.386205 -0.0934999 -0.24545 0.137604 0.0436302 0.0427598 0.0675168 0.127134 -0.3481 0.115921 -0.166703 0.0861883 0.0394531 0.0386927 0.20159 0.0187161 0.0431086 -0.0524356 -0.385995 -0.0848393 0.193506 0.244559 -0.162471 0.0934677 -0.303592 0.139359 0.148345 -0.245361 -0.0713123 0.245849 -0.127972 -0.379966 0.221514 0.0954165 0.128558 0.196973 0.0775162 -0.190981 0.00545731 0.149355 0.0893819 -0.0782737 0.00231034 0.0967709 0.218153 -0.121743 0.103059 -0.254849 
chemistry -0.249009 -0.249396 -0.00880142 0.119406 -0.141662 -0.163928 0.0799261 -0.0225013 0.174853 -0.127297 -0.359578 0.111749 -0.13822 -0.198213 0.224325 0.0998339 0.250576 -0.0322804 -0.131225 0.182206 0.127495 -0.10673 -0.220838 0.0322251 0.250468 -0.251746 0.37747 -0.532123 -0.208975 0.00305132 -0.00255121 0.0547135 0.171082 0.114663 -0.138723 0.197026 0.213532 -0.0206617 -0.289956 -0.0387324 0.0108396 0.161612 -0.0225729 0.0630498 -0.0493847 0.278378 -0.170196 0.0831348 -0.226295 0.192704 -0.263158 0.212786 0.187785 -0.156375 0.134209 0.040587 0.164518 -0.0404917 -0.218852 -0.25627 0.124737 -0.14701 -0.0012151 -0.0403428 0.190165 0.188981 -0.121654 -0.165905 -0.140533 0.0294885 0.15371 -0.143349 -0.0770473 0.138288 0.0393435 -0.0335874 -0.0681343 -0.350021 0.0105996 0.0697308 -0.222076 -0.0667847 -0.130755 -0.234975 0.498121 -0.00118437 -0.0155133 -0.345982 -0.152547 -0.0443573 -0.1716 0.16381 -0.205634 -0.0848903 0.441195 0.0669943 -0.476537 0.0699762 0.179328 0.0798535 -0.194909 0.0456424 0.190335 -0.0463039 -0.0369027 0.0670029 0.269182 -0.161328 -0.0588883 -0.322418 0.232375 -0.0468304 0.141239 -0.0147298 0.322925 0.0250906 -0.0193063 -0.023122 0.211255 -0.0397558 0.00678989 -0.108125 0.142316 0.0896018 -0.0781659 -0.196507 -0.465934 -0.278856 -0.181029 0.0474019 0.103673 -0.0728512 0.128024 -0.0667005 0.171849 -0.0210216 0.0681605 -0.185349 0.0134103 -0.0664812 -0.161925 -0.192356 -0.0155628 0.0276685 -0.110051 -0.254954 0.00907042 -0.164855 -0.133772 0.149101 0.279638 -0.0287988 -0.0326083 -0.179508 -0.00461449 -0.106837 -0.0136282 0.168964 -0.173393 -0.0357796 -0.226857 -0.0746106 -0.175747 0.0527631 -0.0723857 -0.197684 -0.14309 0.0701805 0.25574 -0.0823231 -0.191497 -0.235088 -0.221101 0.121003 -0.23113 0.271816 -0.116356 -0.246702 0.099711 0.0331067 -0.0859512 0.308831 0.0846453 0.147098 0.220948 -0.169688 0.165553 -0.0432154 0.204763 0.228734 0.262421 0.0200029 0.113192 -0.144883 -0.0790811 -0.0612282 -0.0114871 0.164434 0.171832 -0.0538002 -0.0426999 -0.137255 0.00722036 -0.108509 0.468618 -0.08176 -0.0673435 0.127803 0.177255 0.102639 -0.320169 0.0195372 -0.0703021 0.139805 0.0510495 0.112111 -0.165913 0.304418 0.116139 0.0242081 0.0538224 0.19043 0.531297 0.219539 -0.025427 -0.240733 0.0578477 -0.06428 0.409088 -0.199858 0.0407436 -0.173759 0.19308 0.244262 -0.16796 -0.303053 0.246217 0.0225658 0.262873 0.0884373 0.0986751 -0.10005 0.17614 0.012168 -0.00622771 0.267749 -0.0200075 -0.00117684 0.270314 0.169647 0.330388 0.0101453 0.369071 -0.0313491 -0.120747 0.184643 
